{"learner":{"attributes":{},"feature_names":["anyo_ingreso","nota10_hash","nota14_hash","preferencia_seleccion","nota_asig_hash","curso_mas_bajo","curso_mas_alto","cred_mat1","cred_mat2","cred_mat3","cred_mat4","cred_mat5","cred_mat6","cred_sup_normal","cred_sup_espec","cred_sup","cred_mat_normal","cred_mat_movilidad","cred_ptes_acta","cred_mat_practicas","cred_mat_sem_a","cred_mat_sem_b","cred_mat_anu","cred_mat_total","cred_sup_sem_a","cred_sup_sem_b","cred_sup_anu","cred_sup_total","rendimiento_cuat_a","rendimiento_cuat_b","rendimiento_total","exento_npp","anyo_inicio_estudios","cred_sup_1o","cred_sup_2o","cred_sup_3o","cred_sup_4o","cred_sup_5o","practicas","cred_sup_tit","cred_pend_sup_tit","rend_total_ultimo","rend_total_penultimo","ratio_creditos_aprobados","ratio_creditos_pendientes","tendencia_rendimiento","bajo_rendimiento","lms_total_eventos","lms_meses_activos","lms_total_visitas","lms_total_minutos","lms_total_entregas","lms_ratio_entregas","wifi_dias_totales","wifi_meses_activos","desplazado_enc","dedicacion_enc","tipo_ingreso_enc"],"feature_types":["float","float","float","float","float","float","float","float","float","float","float","float","float","float","float","float","float","float","float","float","float","float","float","float","float","float","float","float","float","float","float","float","float","float","float","float","float","float","float","float","float","float","float","float","float","float","int","float","int","float","float","float","float","float","int","int","int","int"],"gradient_booster":{"model":{"cats":{"enc":[],"feature_segments":[],"sorted_idx":[]},"gbtree_model_param":{"num_parallel_tree":"1","num_trees":"400"},"iteration_indptr":[0,1,2,3,4,5,6,7,8,9,10,11,12,13,14,15,16,17,18,19,20,21,22,23,24,25,26,27,28,29,30,31,32,33,34,35,36,37,38,39,40,41,42,43,44,45,46,47,48,49,50,51,52,53,54,55,56,57,58,59,60,61,62,63,64,65,66,67,68,69,70,71,72,73,74,75,76,77,78,79,80,81,82,83,84,85,86,87,88,89,90,91,92,93,94,95,96,97,98,99,100,101,102,103,104,105,106,107,108,109,110,111,112,113,114,115,116,117,118,119,120,121,122,123,124,125,126,127,128,129,130,131,132,133,134,135,136,137,138,139,140,141,142,143,144,145,146,147,148,149,150,151,152,153,154,155,156,157,158,159,160,161,162,163,164,165,166,167,168,169,170,171,172,173,174,175,176,177,178,179,180,181,182,183,184,185,186,187,188,189,190,191,192,193,194,195,196,197,198,199,200,201,202,203,204,205,206,207,208,209,210,211,212,213,214,215,216,217,218,219,220,221,222,223,224,225,226,227,228,229,230,231,232,233,234,235,236,237,238,239,240,241,242,243,244,245,246,247,248,249,250,251,252,253,254,255,256,257,258,259,260,261,262,263,264,265,266,267,268,269,270,271,272,273,274,275,276,277,278,279,280,281,282,283,284,285,286,287,288,289,290,291,292,293,294,295,296,297,298,299,300,301,302,303,304,305,306,307,308,309,310,311,312,313,314,315,316,317,318,319,320,321,322,323,324,325,326,327,328,329,330,331,332,333,334,335,336,337,338,339,340,341,342,343,344,345,346,347,348,349,350,351,352,353,354,355,356,357,358,359,360,361,362,363,364,365,366,367,368,369,370,371,372,373,374,375,376,377,378,379,380,381,382,383,384,385,386,387,388,389,390,391,392,393,394,395,396,397,398,399,400],"tree_info":[0,0,0,0,0,0,0,0,0,0,0,0,0,0,0,0,0,0,0,0,0,0,0,0,0,0,0,0,0,0,0,0,0,0,0,0,0,0,0,0,0,0,0,0,0,0,0,0,0,0,0,0,0,0,0,0,0,0,0,0,0,0,0,0,0,0,0,0,0,0,0,0,0,0,0,0,0,0,0,0,0,0,0,0,0,0,0,0,0,0,0,0,0,0,0,0,0,0,0,0,0,0,0,0,0,0,0,0,0,0,0,0,0,0,0,0,0,0,0,0,0,0,0,0,0,0,0,0,0,0,0,0,0,0,0,0,0,0,0,0,0,0,0,0,0,0,0,0,0,0,0,0,0,0,0,0,0,0,0,0,0,0,0,0,0,0,0,0,0,0,0,0,0,0,0,0,0,0,0,0,0,0,0,0,0,0,0,0,0,0,0,0,0,0,0,0,0,0,0,0,0,0,0,0,0,0,0,0,0,0,0,0,0,0,0,0,0,0,0,0,0,0,0,0,0,0,0,0,0,0,0,0,0,0,0,0,0,0,0,0,0,0,0,0,0,0,0,0,0,0,0,0,0,0,0,0,0,0,0,0,0,0,0,0,0,0,0,0,0,0,0,0,0,0,0,0,0,0,0,0,0,0,0,0,0,0,0,0,0,0,0,0,0,0,0,0,0,0,0,0,0,0,0,0,0,0,0,0,0,0,0,0,0,0,0,0,0,0,0,0,0,0,0,0,0,0,0,0,0,0,0,0,0,0,0,0,0,0,0,0,0,0,0,0,0,0,0,0,0,0,0,0,0,0,0,0,0,0,0,0,0,0,0,0,0,0,0,0,0,0,0,0,0,0,0,0,0,0,0,0,0,0,0,0,0,0,0,0,0,0,0,0,0,0,0,0,0,0,0,0],"trees":[{"base_weights":[-1.9291049E-2,1.25105E0,-1.0302763E0,1.7775937E0,7.6710784E-1,-3.574195E-1,-1.5765382E0,9.739768E-2,1.5335066E0,1.7122359E0,5.9443945E-1,8.84742E-1,-7.409585E-1,-9.695775E-2,-1.6780117E0,7.8219905E-2,3.5860337E-2,8.808046E-2,5.807035E-2,5.2073576E-2,1.1918935E-2,8.021694E-2,-4.3926314E-2,-6.307154E-2,3.1512205E-2,-3.3920806E-2,4.880789E-2,-5.0358333E-2,-9.142044E-2],"categories":[],"categories_nodes":[],"categories_segments":[],"categories_sizes":[],"default_left":[0,0,0,0,0,0,0,0,0,0,0,0,0,0,0,0,0,0,0,0,0,0,0,0,0,0,0,0,0],"id":0,"left_children":[1,3,5,7,9,11,13,-1,15,17,19,21,23,25,27,-1,-1,-1,-1,-1,-1,-1,-1,-1,-1,-1,-1,-1,-1],"loss_changes":[5.3940547E3,4.7223804E2,8.5876953E2,3.253833E1,1.5718085E2,5.0116296E2,1.9348682E2,0E0,7.7227173E0,9.949341E-1,1.3087677E2,3.1726035E2,5.742745E2,5.3661583E1,1.19061035E2,0E0,0E0,0E0,0E0,0E0,0E0,0E0,0E0,0E0,0E0,0E0,0E0,0E0,0E0],"parents":[2147483647,0,0,1,1,2,2,3,3,4,4,5,5,6,6,8,8,9,9,10,10,11,11,12,12,13,13,14,14],"right_children":[2,4,6,8,10,12,14,-1,16,18,20,22,24,26,28,-1,-1,-1,-1,-1,-1,-1,-1,-1,-1,-1,-1,-1,-1],"split_conditions":[5E0,9E0,1E2,1.05E1,1.8E1,0E0,6.45E1,9.739768E-2,5E0,1E1,1.35E1,3.7E1,2.95E1,6.732673E-1,1.3475E2,7.8219905E-2,3.5860337E-2,8.808046E-2,5.807035E-2,5.2073576E-2,1.1918935E-2,8.021694E-2,-4.3926314E-2,-6.307154E-2,3.1512205E-2,-3.3920806E-2,4.880789E-2,-5.0358333E-2,-9.142044E-2],"split_indices":[25,16,29,39,39,57,39,0,57,54,40,7,36,44,47,0,0,0,0,0,0,0,0,0,0,0,0,0,0],"split_type":[0,0,0,0,0,0,0,0,0,0,0,0,0,0,0,0,0,0,0,0,0,0,0,0,0,0,0,0,0],"sum_hessian":[4.1970034E3,1.8597726E3,2.3372307E3,8.887625E2,9.7101E2,1.0483768E3,1.2888539E3,5.172669E2,3.7149564E2,1.4792798E2,8.2308203E2,2.4687303E2,8.015038E2,8.2908E1,1.2059459E3,3.5662512E2,1.4870525E1,1.3273335E2,1.519463E1,3.6364304E2,4.5943903E2,1.7541904E2,7.1453995E1,5.810664E2,2.2043735E2,5.4129894E1,2.8778103E1,2.2296378E2,9.829821E2],"tree_param":{"num_deleted":"0","num_feature":"58","num_nodes":"29","size_leaf_vector":"1"}},{"base_weights":[-4.424677E-3,1.3515216E0,-8.6805457E-1,1.8012393E0,1.0297025E0,-2.0182002E-1,-1.5257074E0,9.215172E-2,1.4376173E0,1.1324205E0,-1.392385E-1,-4.2369747E-1,1.6159787E0,-9.1929376E-1,-1.7005304E0,3.4212664E-2,7.4993424E-2,5.1435497E-2,7.898598E-2,-6.031034E-2,4.4496343E-3,2.8195346E-2,-4.8746362E-2,8.543607E-2,-7.811145E-3,-7.8803423E-4,-5.9544303E-2,3.031717E-2,-8.740052E-2],"categories":[],"categories_nodes":[],"categories_segments":[],"categories_sizes":[],"default_left":[0,0,0,0,0,0,0,0,0,0,0,0,0,0,0,0,0,0,0,0,0,0,0,0,0,0,0,0,0],"id":1,"left_children":[1,3,5,7,9,11,13,-1,15,17,19,21,23,25,27,-1,-1,-1,-1,-1,-1,-1,-1,-1,-1,-1,-1,-1,-1],"loss_changes":[4.9628486E3,2.3587305E2,1.133912E3,6.448242E0,1.1606641E2,5.2044916E2,1.3575708E2,0E0,2.0961304E0,3.870642E1,1.9461391E1,6.263014E2,2.347696E1,7.23067E1,1.1214917E2,0E0,0E0,0E0,0E0,0E0,0E0,0E0,0E0,0E0,0E0,0E0,0E0,0E0,0E0],"parents":[2147483647,0,0,1,1,2,2,3,3,4,4,5,5,6,6,8,8,9,9,10,10,11,11,12,12,13,13,14,14],"right_children":[2,4,6,8,10,12,14,-1,16,18,20,22,24,26,28,-1,-1,-1,-1,-1,-1,-1,-1,-1,-1,-1,-1,-1,-1],"split_conditions":[1.6E1,1.4E1,8.929E1,4.5E0,1E1,8.889E1,3.65E1,9.215172E-2,6.703E0,1.59E2,4.460303E-3,1.35E1,0E0,5.75E1,6.2E1,3.4212664E-2,7.4993424E-2,5.1435497E-2,7.898598E-2,-6.031034E-2,4.4496343E-3,2.8195346E-2,-4.8746362E-2,8.543607E-2,-7.811145E-3,-7.8803423E-4,-5.9544303E-2,3.031717E-2,-8.740052E-2],"split_indices":[27,39,29,33,48,29,49,0,2,40,52,40,57,23,39,0,0,0,0,0,0,0,0,0,0,0,0,0,0],"split_type":[0,0,0,0,0,0,0,0,0,0,0,0,0,0,0,0,0,0,0,0,0,0,0,0,0,0,0,0,0],"sum_hessian":[4.2349966E3,1.6474938E3,2.5875027E3,6.84317E2,9.631767E2,1.2863387E3,1.3011641E3,6.08296E2,7.6021E1,8.8541943E2,7.77573E1,1.147435E3,1.3890361E2,2.9327173E2,1.00789233E3,7.175143E0,6.8845856E1,7.2278455E2,1.6263489E2,1.2569244E1,6.518806E1,4.1101337E2,7.3642175E2,1.3204707E2,6.8565383E0,6.8147095E1,2.2512463E2,1.9970003E1,9.879223E2],"tree_param":{"num_deleted":"0","num_feature":"58","num_nodes":"29","size_leaf_vector":"1"}},{"base_weights":[4.8509464E-3,1.1627398E0,-9.2802614E-1,1.6274227E0,7.216697E-1,-3.1344068E-1,-1.4611313E0,1.3660961E0,1.7355825E0,8.623498E-1,-1.3960353E-1,8.6384475E-1,-6.809204E-1,-6.4928734E-1,-1.5747008E0,7.1244285E-2,3.574243E-2,8.759456E-2,-1.8115512E-3,7.5540476E-2,3.624833E-2,6.522651E-2,-3.172354E-2,7.27634E-2,-3.5201136E-2,-5.61373E-2,2.6920406E-2,5.2901197E-2,-4.5638777E-2,-8.2948826E-2,-1.1312595E-2],"categories":[],"categories_nodes":[],"categories_segments":[],"categories_sizes":[],"default_left":[0,0,0,0,0,0,0,0,0,0,0,0,0,0,0,0,0,0,0,0,0,0,0,0,0,0,0,0,0,0,0],"id":2,"left_children":[1,3,5,7,9,11,13,15,17,19,21,23,25,27,29,-1,-1,-1,-1,-1,-1,-1,-1,-1,-1,-1,-1,-1,-1,-1,-1],"loss_changes":[4.5524663E3,3.8366138E2,7.640514E2,2.2293213E1,1.1740173E2,4.7076047E2,1.1367041E2,8.991821E0,1.8625854E1,7.246277E1,9.924055E1,2.4172885E2,4.472826E2,7.157834E1,1.2388501E2,0E0,0E0,0E0,0E0,0E0,0E0,0E0,0E0,0E0,0E0,0E0,0E0,0E0,0E0,0E0,0E0],"parents":[2147483647,0,0,1,1,2,2,3,3,4,4,5,5,6,6,7,7,8,8,9,9,10,10,11,11,12,12,13,13,14,14],"right_children":[2,4,6,8,10,12,14,16,18,20,22,24,26,28,30,-1,-1,-1,-1,-1,-1,-1,-1,-1,-1,-1,-1,-1,-1,-1,-1],"split_conditions":[5E0,9E0,9E1,9.1111115E1,2E0,0E0,0E0,8E0,2.022E3,1.4E1,3.75E-1,3.7E1,2.95E1,2.021E3,2.9E1,7.1244285E-2,3.574243E-2,8.759456E-2,-1.8115512E-3,7.5540476E-2,3.624833E-2,6.522651E-2,-3.172354E-2,7.27634E-2,-3.5201136E-2,-5.61373E-2,2.6920406E-2,5.2901197E-2,-4.5638777E-2,-8.2948826E-2,-1.1312595E-2],"split_indices":[25,16,30,41,26,57,57,54,32,33,44,7,36,32,36,0,0,0,0,0,0,0,0,0,0,0,0,0,0,0,0],"split_type":[0,0,0,0,0,0,0,0,0,0,0,0,0,0,0,0,0,0,0,0,0,0,0,0,0,0,0,0,0,0,0],"sum_hessian":[4.211593E3,1.8790021E3,2.3325906E3,9.130437E2,9.6595844E2,1.0846006E3,1.24799E3,2.7326038E2,6.397833E2,8.3033057E2,1.3562782E2,2.5753052E2,8.2707E2,1.5439363E2,1.0935963E3,2.4900063E2,2.4259733E1,6.3396484E2,5.818504E0,1.4253908E2,6.877915E2,3.3988262E1,1.0163956E2,1.870719E2,7.04586E1,6.0717725E2,2.198928E2,2.0037094E1,1.3435654E2,1.0289438E3,6.46525E1],"tree_param":{"num_deleted":"0","num_feature":"58","num_nodes":"31","size_leaf_vector":"1"}},{"base_weights":[-1.0361628E-2,1.0768182E0,-8.808229E-1,1.5559441E0,6.310864E-1,-2.9391655E-1,-1.3804394E0,8.520945E-2,1.3526086E0,1.441654E0,4.815919E-1,-8.715333E-1,3.002749E-1,-7.158597E-1,-1.5355434E0,7.264371E-2,5.4224532E-2,7.367667E-2,3.2019604E-2,3.0408148E-2,-2.8998766E-2,-1.2495579E-2,-6.0193058E-2,-1.3023942E-3,7.637238E-2,7.453136E-3,-4.6534218E-2,3.8372647E-2,-7.906814E-2],"categories":[],"categories_nodes":[],"categories_segments":[],"categories_sizes":[],"default_left":[0,0,0,0,0,0,0,0,0,0,0,0,0,0,0,0,0,0,0,0,0,0,0,0,0,0,0,0,0],"id":3,"left_children":[1,3,5,7,9,11,13,-1,15,17,19,21,23,25,27,-1,-1,-1,-1,-1,-1,-1,-1,-1,-1,-1,-1,-1,-1],"loss_changes":[3.937032E3,3.935835E2,6.768616E2,2.3385254E1,1.1538916E2,3.6567343E2,1.26951904E2,0E0,7.9261475E0,2.3871155E0,1.0983125E2,1.1111496E2,2.1059242E2,4.459452E1,1.0841919E2,0E0,0E0,0E0,0E0,0E0,0E0,0E0,0E0,0E0,0E0,0E0,0E0,0E0,0E0],"parents":[2147483647,0,0,1,1,2,2,3,3,4,4,5,5,6,6,8,8,9,9,10,10,11,11,12,12,13,13,14,14],"right_children":[2,4,6,8,10,12,14,-1,16,18,20,22,24,26,28,-1,-1,-1,-1,-1,-1,-1,-1,-1,-1,-1,-1,-1,-1],"split_conditions":[5E0,9E0,9E1,6E0,1.8E1,8.679E1,1E0,8.520945E-2,2E0,1.00416664E2,3.3E1,2.4541667E2,8.846E1,5.45E1,6.2E1,7.264371E-2,5.4224532E-2,7.367667E-2,3.2019604E-2,3.0408148E-2,-2.8998766E-2,-1.2495579E-2,-6.0193058E-2,-1.3023942E-3,7.637238E-2,7.453136E-3,-4.6534218E-2,3.8372647E-2,-7.906814E-2],"split_indices":[25,16,30,39,39,28,49,0,54,49,22,47,29,23,39,0,0,0,0,0,0,0,0,0,0,0,0,0,0],"split_type":[0,0,0,0,0,0,0,0,0,0,0,0,0,0,0,0,0,0,0,0,0,0,0,0,0,0,0,0,0],"sum_hessian":[4.157234E3,1.8483478E3,2.308886E3,8.8900385E2,9.5934393E2,1.062792E3,1.246094E3,5.077493E2,3.8125455E2,1.473638E2,8.119801E2,5.385574E2,5.242346E2,2.3738507E2,1.008709E3,2.726616E2,1.08592964E2,1.4051468E2,6.8491116E0,7.260532E2,8.5926926E1,1.88533E2,3.5002438E2,4.152752E2,1.0895945E2,4.7321083E1,1.90064E2,1.9216433E1,9.8949255E2],"tree_param":{"num_deleted":"0","num_feature":"58","num_nodes":"29","size_leaf_vector":"1"}},{"base_weights":[-1.1418113E-2,1.1809137E0,-7.605264E-1,1.5126749E0,7.748319E-1,-1.973036E-1,-1.3264037E0,1.1908462E0,1.5978496E0,1.3657479E0,6.139797E-1,-5.473007E-1,6.51274E-1,-1.833176E-2,-1.4127891E0,1.4789025E-2,6.2595315E-2,8.115905E-2,5.00116E-2,6.9747485E-2,2.488598E-2,3.2655183E-2,-4.0777598E-2,2.8941438E-2,-5.35622E-2,3.8871616E-2,-8.02265E-2,-2.4704862E-2,5.094237E-2,-4.00921E-2,-7.78124E-2],"categories":[],"categories_nodes":[],"categories_segments":[],"categories_sizes":[],"default_left":[0,0,0,0,0,0,0,0,0,0,0,0,0,0,0,0,0,0,0,0,0,0,0,0,0,0,0,0,0,0,0],"id":4,"left_children":[1,3,5,7,9,11,13,15,17,19,21,23,25,27,29,-1,-1,-1,-1,-1,-1,-1,-1,-1,-1,-1,-1,-1,-1,-1,-1],"loss_changes":[3.6954355E3,2.1331445E2,8.094436E2,2.1186768E1,6.7262146E1,3.7927457E2,1.4315479E2,9.797302E0,7.996704E0,2.8372498E0,3.2642868E1,5.3411273E2,1.0804057E2,4.024272E1,1.02312744E2,0E0,0E0,0E0,0E0,0E0,0E0,0E0,0E0,0E0,0E0,0E0,0E0,0E0,0E0,0E0,0E0],"parents":[2147483647,0,0,1,1,2,2,3,3,4,4,5,5,6,6,7,7,8,8,9,9,10,10,11,11,12,12,13,13,14,14],"right_children":[2,4,6,8,10,12,14,16,18,20,22,24,26,28,30,-1,-1,-1,-1,-1,-1,-1,-1,-1,-1,-1,-1,-1,-1,-1,-1],"split_conditions":[1.6E1,9E0,8.929E1,5.7E1,1.8E1,2.45E1,6.45E1,2.6E1,5.5E1,1.01E2,3.8E1,0E0,4.2E1,7.2E1,1.3475E2,1.4789025E-2,6.2595315E-2,8.115905E-2,5.00116E-2,6.9747485E-2,2.488598E-2,3.2655183E-2,-4.0777598E-2,2.8941438E-2,-5.35622E-2,3.8871616E-2,-8.02265E-2,-2.4704862E-2,5.094237E-2,-4.00921E-2,-7.78124E-2],"split_indices":[27,16,29,40,39,36,39,33,53,53,7,57,22,40,47,0,0,0,0,0,0,0,0,0,0,0,0,0,0,0,0],"split_type":[0,0,0,0,0,0,0,0,0,0,0,0,0,0,0,0,0,0,0,0,0,0,0,0,0,0,0,0,0,0,0],"sum_hessian":[4.1343574E3,1.594916E3,2.5394414E3,8.755336E2,7.193823E2,1.2737198E3,1.2657217E3,1.8792798E2,6.8760565E2,1.5151863E2,5.678637E2,9.0215656E2,3.7156323E2,7.852288E1,1.1871989E3,1.2561263E1,1.7536671E2,6.571757E2,3.0429958E1,1.4570631E2,5.812326E0,5.5352924E2,1.4334494E1,2.8640952E2,6.15747E2,3.5281476E2,1.8748497E1,5.436875E1,2.4154125E1,2.2763902E2,9.595598E2],"tree_param":{"num_deleted":"0","num_feature":"58","num_nodes":"31","size_leaf_vector":"1"}},{"base_weights":[-8.161098E-3,1.1293379E0,-7.222341E-1,7.448438E-1,1.4595959E0,-1.648968E-1,-1.302027E0,8.419426E-1,-2.6589887E-2,4.6096623E-1,1.5003165E0,4.796116E-2,-1.4221536E0,-7.4249405E-1,-1.4639512E0,3.479568E-2,5.527062E-2,5.5373963E-2,-2.9642606E-2,4.0268768E-2,-3.895056E-2,7.560643E-2,-7.6069324E-3,-2.484995E-2,2.6787046E-2,3.8914327E-2,-7.814818E-2,-3.9427923E-3,-4.629597E-2,1.4004067E-2,-7.560068E-2],"categories":[],"categories_nodes":[],"categories_segments":[],"categories_sizes":[],"default_left":[0,0,0,0,0,0,0,0,0,0,0,0,0,0,0,0,0,0,0,0,0,0,0,0,0,0,0,0,0,0,0],"id":5,"left_children":[1,3,5,7,9,11,13,15,17,19,21,23,25,27,29,-1,-1,-1,-1,-1,-1,-1,-1,-1,-1,-1,-1,-1,-1,-1,-1],"loss_changes":[3.368675E3,2.0147034E2,8.2299133E2,5.562094E1,3.3887085E1,3.4821875E2,1.1149072E2,2.420758E1,5.519663E1,1.6235657E1,1.6438965E1,2.964991E2,6.0196777E1,3.4372314E1,8.167334E1,0E0,0E0,0E0,0E0,0E0,0E0,0E0,0E0,0E0,0E0,0E0,0E0,0E0,0E0,0E0,0E0],"parents":[2147483647,0,0,1,1,2,2,3,3,4,4,5,5,6,6,7,7,8,8,9,9,10,10,11,11,12,12,13,13,14,14],"right_children":[2,4,6,8,10,12,14,16,18,20,22,24,26,28,30,-1,-1,-1,-1,-1,-1,-1,-1,-1,-1,-1,-1,-1,-1,-1,-1],"split_conditions":[1.6E1,1E0,1E2,1E1,2.019E3,3.6E1,1.41E2,1E2,1.8E1,8E0,2.022E3,5.811111E0,1.3267E2,5.75E1,7.05E1,3.479568E-2,5.527062E-2,5.5373963E-2,-2.9642606E-2,4.0268768E-2,-3.895056E-2,7.560643E-2,-7.6069324E-3,-2.484995E-2,2.6787046E-2,3.8914327E-2,-7.814818E-2,-3.9427923E-3,-4.629597E-2,1.4004067E-2,-7.560068E-2],"split_indices":[27,44,29,48,0,9,47,41,39,48,32,4,39,23,39,0,0,0,0,0,0,0,0,0,0,0,0,0,0,0,0],"split_type":[0,0,0,0,0,0,0,0,0,0,0,0,0,0,0,0,0,0,0,0,0,0,0,0,0,0,0,0,0,0,0],"sum_hessian":[4.144294E3,1.5979425E3,2.5463516E3,7.406007E2,8.573418E2,1.2993004E3,1.2470513E3,6.576824E2,8.2918274E1,3.4313652E1,8.2302814E2,1.1124084E3,1.8689188E2,2.8176935E2,9.652819E2,4.2666425E2,2.3101814E2,2.7136868E1,5.578141E1,2.726611E1,7.047542E0,8.173132E2,5.7149196E0,5.2539514E2,5.8701337E2,1.0831839E1,1.7606003E2,6.147953E1,2.2028983E2,2.5693842E1,9.395881E2],"tree_param":{"num_deleted":"0","num_feature":"58","num_nodes":"31","size_leaf_vector":"1"}},{"base_weights":[7.031937E-4,1.0950991E0,-6.8889827E-1,1.4170343E0,7.4268407E-1,-1.6177285E-1,-1.2462265E0,1.4757845E0,9.84344E-1,1.3194467E0,5.981627E-1,-3.4108186E-1,1.3905333E0,1.4438055E-2,-1.3289511E0,7.738639E-2,6.537214E-2,5.8528908E-2,1.8642882E-2,7.0531026E-2,5.5095624E-2,3.530884E-2,-1.355991E-2,2.590171E-2,-4.126098E-2,7.9763085E-2,2.7939653E-2,-2.8757004E-2,4.856225E-2,-3.817833E-2,-7.311442E-2],"categories":[],"categories_nodes":[],"categories_segments":[],"categories_sizes":[],"default_left":[0,0,0,0,0,0,0,0,0,0,0,0,0,0,0,0,0,0,0,0,0,0,0,0,0,0,0,0,0,0,0],"id":6,"left_children":[1,3,5,7,9,11,13,15,17,19,21,23,25,27,29,-1,-1,-1,-1,-1,-1,-1,-1,-1,-1,-1,-1,-1,-1,-1,-1],"loss_changes":[3.0838352E3,1.7762439E2,7.3611475E2,1.876233E1,6.1933136E1,3.5976495E2,1.2707373E2,5.7126465E0,1.1073456E1,6.5289307E-1,5.7402527E1,4.821216E2,2.145868E1,4.3992554E1,8.4507935E1,0E0,0E0,0E0,0E0,0E0,0E0,0E0,0E0,0E0,0E0,0E0,0E0,0E0,0E0,0E0,0E0],"parents":[2147483647,0,0,1,1,2,2,3,3,4,4,5,5,6,6,7,7,8,8,9,9,10,10,11,11,12,12,13,13,14,14],"right_children":[2,4,6,8,10,12,14,16,18,20,22,24,26,28,30,-1,-1,-1,-1,-1,-1,-1,-1,-1,-1,-1,-1,-1,-1,-1,-1],"split_conditions":[1.6E1,6E0,8.929E1,1.35E1,1.8E1,8.889E1,6.45E1,6E0,1.75E1,1.260745E-2,1E1,1.35E1,3.6E1,6.4356434E-1,1.31E2,7.738639E-2,6.537214E-2,5.8528908E-2,1.8642882E-2,7.0531026E-2,5.5095624E-2,3.530884E-2,-1.355991E-2,2.590171E-2,-4.126098E-2,7.9763085E-2,2.7939653E-2,-2.8757004E-2,4.856225E-2,-3.817833E-2,-7.311442E-2],"split_indices":[27,16,29,35,39,29,39,39,47,52,48,40,33,44,47,0,0,0,0,0,0,0,0,0,0,0,0,0,0,0,0],"split_type":[0,0,0,0,0,0,0,0,0,0,0,0,0,0,0,0,0,0,0,0,0,0,0,0,0,0,0,0,0,0,0],"sum_hessian":[4.0831902E3,1.5780101E3,2.5051802E3,8.2229895E2,7.557112E2,1.2884702E3,1.21671E3,7.208118E2,1.0148715E2,1.4897597E2,6.0673517E2,1.1560981E3,1.3237206E2,7.5000084E1,1.1417098E3,4.9638425E2,2.2442754E2,7.674288E1,2.474427E1,9.918027E1,4.97957E1,5.399326E2,6.680258E1,4.1664496E2,7.3945325E2,1.0512029E2,2.725177E1,4.6775608E1,2.8224476E1,2.1979803E2,9.219118E2],"tree_param":{"num_deleted":"0","num_feature":"58","num_nodes":"31","size_leaf_vector":"1"}},{"base_weights":[6.9471094E-4,9.352731E-1,-7.3554665E-1,1.3479643E0,5.692636E-1,8.7508214E-1,-8.8132215E-1,7.4809015E-2,1.1399152E0,1.2655692E0,4.286695E-1,1.6947947E-1,1.3054236E0,-2.6142284E-1,-1.2356162E0,5.9074767E-2,2.3596171E-2,6.665593E-2,2.5146797E-2,4.0754814E-2,6.01143E-3,3.1477455E-2,-3.5959423E-2,6.941791E-2,6.4959438E-3,-7.715102E-4,-6.912907E-2,-7.1627796E-2,-2.1235231E-2],"categories":[],"categories_nodes":[],"categories_segments":[],"categories_sizes":[],"default_left":[0,0,0,0,0,0,0,0,0,0,0,0,0,0,0,0,0,0,0,0,0,0,0,0,0,0,0,0,0],"id":7,"left_children":[1,3,5,7,9,11,13,-1,15,17,19,21,23,25,27,-1,-1,-1,-1,-1,-1,-1,-1,-1,-1,-1,-1,-1,-1],"loss_changes":[2.7874673E3,2.6848743E2,5.3319165E2,2.3281006E1,9.2056366E1,5.7004257E1,4.560487E2,0E0,9.021332E0,7.164627E0,9.419849E1,3.0630436E1,1.1142136E1,2.0898746E2,2.1025964E2,0E0,0E0,0E0,0E0,0E0,0E0,0E0,0E0,0E0,0E0,0E0,0E0,0E0,0E0],"parents":[2147483647,0,0,1,1,2,2,3,3,4,4,5,5,6,6,8,8,9,9,10,10,11,11,12,12,13,13,14,14],"right_children":[2,4,6,8,10,12,14,-1,16,18,20,22,24,26,28,-1,-1,-1,-1,-1,-1,-1,-1,-1,-1,-1,-1,-1,-1],"split_conditions":[5E0,9E0,4.8E1,6E0,2.1E1,6.364E1,1E1,7.4809015E-2,1.505E2,1E1,1.35E1,3.6E1,8.857E1,4.05E1,4E0,5.9074767E-2,2.3596171E-2,6.665593E-2,2.5146797E-2,4.0754814E-2,6.01143E-3,3.1477455E-2,-3.5959423E-2,6.941791E-2,6.4959438E-3,-7.715102E-4,-6.912907E-2,-7.1627796E-2,-2.1235231E-2],"split_indices":[25,16,39,39,39,30,48,0,47,54,40,39,30,9,6,0,0,0,0,0,0,0,0,0,0,0,0,0,0],"split_type":[0,0,0,0,0,0,0,0,0,0,0,0,0,0,0,0,0,0,0,0,0,0,0,0,0,0,0,0,0],"sum_hessian":[4.0481082E3,1.7836072E3,2.264501E3,8.3645013E2,9.4715704E2,1.8732295E2,2.0771782E3,4.8304056E2,3.5340958E2,1.571003E2,7.9005676E2,7.175755E1,1.155654E2,7.5637494E2,1.3208031E3,3.3161462E2,2.1794952E1,1.4328677E2,1.3813536E1,3.496002E2,4.4045657E2,4.756842E1,2.4189135E1,1.07695625E2,7.8697777E0,6.2152686E2,1.3484813E2,1.0617858E3,2.5901743E2],"tree_param":{"num_deleted":"0","num_feature":"58","num_nodes":"29","size_leaf_vector":"1"}},{"base_weights":[4.4631874E-3,9.079765E-1,-7.332807E-1,1.3261204E0,5.7293254E-1,8.376086E-1,-8.730282E-1,7.300714E-2,1.1087037E0,6.978878E-1,-1.21562734E-1,1.52904E-1,1.2607231E0,-1.0554723E0,1.682005E-1,5.836705E-2,1.664765E-2,6.5229945E-2,2.945661E-2,5.0348382E-2,-3.474426E-2,2.974232E-2,-3.8937956E-2,6.718716E-2,6.6053146E-3,-1.8921977E-2,-6.603888E-2,-2.363499E-2,3.593775E-2],"categories":[],"categories_nodes":[],"categories_segments":[],"categories_sizes":[],"default_left":[0,0,0,0,0,0,0,0,0,0,0,0,0,0,0,0,0,0,0,0,0,0,0,0,0,0,0,0,0],"id":8,"left_children":[1,3,5,7,9,11,13,-1,15,17,19,21,23,25,27,-1,-1,-1,-1,-1,-1,-1,-1,-1,-1,-1,-1,-1,-1],"loss_changes":[2.6912646E3,2.531167E2,4.890349E2,2.10625E1,8.779248E1,5.2537086E1,3.8814417E2,0E0,1.368515E1,5.5353394E1,1.0154228E2,3.0072626E1,1.0274048E1,3.1135986E2,1.0838348E2,0E0,0E0,0E0,0E0,0E0,0E0,0E0,0E0,0E0,0E0,0E0,0E0,0E0,0E0],"parents":[2147483647,0,0,1,1,2,2,3,3,4,4,5,5,6,6,8,8,9,9,10,10,11,11,12,12,13,13,14,14],"right_children":[2,4,6,8,10,12,14,-1,16,18,20,22,24,26,28,-1,-1,-1,-1,-1,-1,-1,-1,-1,-1,-1,-1,-1,-1],"split_conditions":[5E0,6E0,4.8E1,1.05E1,1E1,6.41E1,2.4E1,7.300714E-2,8E0,1.8E1,1.65E1,3.6E1,8.857E1,1E0,2.45E1,5.836705E-2,1.664765E-2,6.5229945E-2,2.945661E-2,5.0348382E-2,-3.474426E-2,2.974232E-2,-3.8937956E-2,6.718716E-2,6.6053146E-3,-1.8921977E-2,-6.603888E-2,-2.363499E-2,3.593775E-2],"split_indices":[25,16,39,39,54,30,10,0,54,39,40,39,30,51,24,0,0,0,0,0,0,0,0,0,0,0,0,0,0],"split_type":[0,0,0,0,0,0,0,0,0,0,0,0,0,0,0,0,0,0,0,0,0,0,0,0,0,0,0,0,0],"sum_hessian":[4.034536E3,1.8133654E3,2.2211707E3,8.0467377E2,1.0086916E3,1.8084273E2,2.0403279E3,4.9250476E2,3.12169E2,8.548734E2,1.5381818E2,6.985004E1,1.1099269E2,1.7361068E3,3.0422107E2,2.895271E2,2.2641912E1,1.2743916E2,7.2743427E2,5.143626E1,1.0238191E2,4.774437E1,2.2105667E1,1.03121254E2,7.871437E0,4.8980722E2,1.2462996E3,1.4067429E2,1.6354678E2],"tree_param":{"num_deleted":"0","num_feature":"58","num_nodes":"29","size_leaf_vector":"1"}},{"base_weights":[-2.6314491E-3,9.823376E-1,-6.2309587E-1,1.3775336E0,7.216355E-1,-1.3674858E-1,-1.1372691E0,7.0631236E-2,1.0693766E0,8.102224E-1,-2.7971506E-1,5.4610126E-2,-1.243598E0,-6.494347E-1,-1.2863139E0,6.0284812E-2,3.1933095E-2,5.4220665E-2,3.1162316E-2,-6.609519E-2,-1.346244E-4,-2.1113468E-2,2.56744E-2,6.9580376E-2,-6.870517E-2,3.1106784E-3,-4.2279806E-2,2.6192069E-2,-6.617197E-2],"categories":[],"categories_nodes":[],"categories_segments":[],"categories_sizes":[],"default_left":[0,0,0,0,0,0,0,0,0,0,0,0,0,0,0,0,0,0,0,0,0,0,0,0,0,0,0,0,0],"id":9,"left_children":[1,3,5,7,9,11,13,-1,15,17,19,21,23,25,27,-1,-1,-1,-1,-1,-1,-1,-1,-1,-1,-1,-1,-1,-1],"loss_changes":[2.4101958E3,1.5554333E2,6.0482666E2,4.267334E0,8.208414E1,2.6383075E2,8.42489E1,0E0,2.8340073E0,4.2409424E1,2.1940315E1,2.3295131E2,6.601013E1,3.8919037E1,6.1469727E1,0E0,0E0,0E0,0E0,0E0,0E0,0E0,0E0,0E0,0E0,0E0,0E0,0E0,0E0],"parents":[2147483647,0,0,1,1,2,2,3,3,4,4,5,5,6,6,8,8,9,9,10,10,11,11,12,12,13,13,14,14],"right_children":[2,4,6,8,10,12,14,-1,16,18,20,22,24,26,28,-1,-1,-1,-1,-1,-1,-1,-1,-1,-1,-1,-1,-1,-1],"split_conditions":[1.6E1,1.4E1,8.929E1,6E0,1E1,3.45E1,1.41E2,7.0631236E-2,2.0378457E-2,9E0,-2.6585365E1,5.9E0,6E0,5.75E1,6.2E1,6.0284812E-2,3.1933095E-2,5.4220665E-2,3.1162316E-2,-6.609519E-2,-1.346244E-4,-2.1113468E-2,2.56744E-2,6.9580376E-2,-6.870517E-2,3.1106784E-3,-4.2279806E-2,2.6192069E-2,-6.617197E-2],"split_indices":[27,39,29,39,48,9,47,0,52,16,45,4,33,23,39,0,0,0,0,0,0,0,0,0,0,0,0,0,0],"split_type":[0,0,0,0,0,0,0,0,0,0,0,0,0,0,0,0,0,0,0,0,0,0,0,0,0,0,0,0,0],"sum_hessian":[3.940779E3,1.5226855E3,2.4180935E3,6.0267303E2,9.200126E2,1.2436478E3,1.1744456E3,5.3623364E2,6.643939E1,8.454997E2,7.451285E1,1.0615472E3,1.8210062E2,2.7672855E2,8.97717E2,4.8416733E1,1.8022661E1,3.3988132E2,5.0561838E2,1.4458957E1,6.005389E1,5.206216E2,5.4092566E2,7.908806E0,1.7419182E2,6.0017414E1,2.1671114E2,1.764649E1,8.800705E2],"tree_param":{"num_deleted":"0","num_feature":"58","num_nodes":"29","size_leaf_vector":"1"}},{"base_weights":[5.8202627E-3,9.420159E-1,-5.797826E-1,6.162526E-1,1.25598E0,-8.181251E-1,4.1929823E-1,7.12443E-1,-1.465553E-1,1.3136774E0,5.810042E-1,-2.9615808E-1,-1.3151121E0,6.2526196E-1,-8.4195143E-1,1.5653364E-2,4.066391E-2,4.2724352E-2,-2.5708333E-2,6.625707E-2,7.87215E-3,4.815064E-2,-1.1713573E-2,2.8404726E-2,-3.6415584E-2,-1.6400859E-2,-6.692428E-2,-4.796316E-3,4.205069E-2,7.58564E-2,-6.462984E-2],"categories":[],"categories_nodes":[],"categories_segments":[],"categories_sizes":[],"default_left":[0,0,0,0,0,0,0,0,0,0,0,0,0,0,0,0,0,0,0,0,0,0,0,0,0,0,0,0,0,0,0],"id":10,"left_children":[1,3,5,7,9,11,13,15,17,19,21,23,25,27,29,-1,-1,-1,-1,-1,-1,-1,-1,-1,-1,-1,-1,-1,-1,-1,-1],"loss_changes":[2.1441943E3,1.5276843E2,5.734524E2,5.4569214E1,2.8645142E1,5.0348413E2,1.2143453E2,2.6148102E1,3.167543E1,9.011963E0,1.9936773E1,3.5531705E2,2.2296753E1,6.2374435E1,7.2930466E1,0E0,0E0,0E0,0E0,0E0,0E0,0E0,0E0,0E0,0E0,0E0,0E0,0E0,0E0,0E0,0E0],"parents":[2147483647,0,0,1,1,2,2,3,3,4,4,5,5,6,6,7,7,8,8,9,9,10,10,11,11,12,12,13,13,14,14],"right_children":[2,4,6,8,10,12,14,16,18,20,22,24,26,28,30,-1,-1,-1,-1,-1,-1,-1,-1,-1,-1,-1,-1,-1,-1,-1,-1],"split_conditions":[1.6E1,1E0,2.25E1,1E1,4.5E1,1.11E2,3.3E1,5.609756E1,1.8E1,1.05E2,1E0,3.525E1,5.331E0,8.667E1,2.2222222E-1,1.5653364E-2,4.066391E-2,4.2724352E-2,-2.5708333E-2,6.625707E-2,7.87215E-3,4.815064E-2,-1.1713573E-2,2.8404726E-2,-3.6415584E-2,-1.6400859E-2,-6.692428E-2,-4.796316E-3,4.205069E-2,7.58564E-2,-6.462984E-2],"split_indices":[27,44,36,48,34,39,22,42,39,53,53,7,1,28,44,0,0,0,0,0,0,0,0,0,0,0,0,0,0,0,0],"split_type":[0,0,0,0,0,0,0,0,0,0,0,0,0,0,0,0,0,0,0,0,0,0,0,0,0,0,0,0,0,0,0],"sum_hessian":[3.908064E3,1.5035098E3,2.4045542E3,7.400707E2,7.634391E2,1.9416277E3,4.6292648E2,6.572857E2,8.278497E1,7.0201135E2,6.1427757E1,9.4818146E2,9.934462E2,3.9859222E2,6.433426E1,1.3374033E2,5.235454E2,2.1701899E1,6.1083076E1,6.949024E2,7.1089344E0,4.1643368E1,1.9784388E1,3.1591653E2,6.322649E2,2.350144E1,9.6994476E2,9.197679E1,3.0661542E2,9.74907E0,5.458519E1],"tree_param":{"num_deleted":"0","num_feature":"58","num_nodes":"31","size_leaf_vector":"1"}},{"base_weights":[1.4440976E-2,8.3010775E-1,-6.431083E-1,1.2447064E0,4.971679E-1,-1.5098527E-1,-1.1028022E0,1.3183271E0,9.368018E-1,6.260043E-1,-1.8984902E-1,-3.4633765E-1,1.0932544E0,-3.9680114E-1,-1.2185535E0,5.1429033E-2,6.757244E-2,5.158419E-2,-2.1289427E-2,2.5212068E-2,5.6200065E-2,5.0540816E-2,-3.559869E-2,1.727409E-2,-3.4202307E-2,6.7775115E-2,-1.9167911E-2,-2.9949894E-2,8.081279E-2,4.0595446E-2,-6.3057184E-2],"categories":[],"categories_nodes":[],"categories_segments":[],"categories_sizes":[],"default_left":[0,0,0,0,0,0,0,0,0,0,0,0,0,0,0,0,0,0,0,0,0,0,0,0,0,0,0,0,0,0,0],"id":11,"left_children":[1,3,5,7,9,11,13,15,17,19,21,23,25,27,29,-1,-1,-1,-1,-1,-1,-1,-1,-1,-1,-1,-1,-1,-1,-1,-1],"loss_changes":[2.0730298E3,2.3720349E2,4.8387445E2,1.5541748E1,8.508771E1,2.5220943E2,8.96759E1,3.8226318E0,2.0472336E1,4.8154205E1,9.676804E1,2.096748E2,5.532144E1,6.578205E1,8.366138E1,0E0,0E0,0E0,0E0,0E0,0E0,0E0,0E0,0E0,0E0,0E0,0E0,0E0,0E0,0E0,0E0],"parents":[2147483647,0,0,1,1,2,2,3,3,4,4,5,5,6,6,7,7,8,8,9,9,10,10,11,11,12,12,13,13,14,14],"right_children":[2,4,6,8,10,12,14,16,18,20,22,24,26,28,30,-1,-1,-1,-1,-1,-1,-1,-1,-1,-1,-1,-1,-1,-1,-1,-1],"split_conditions":[5E0,6E0,9E1,7.8E1,1E1,8.788E1,0E0,5.2E1,6E0,1.935E2,1.5E1,1.35E1,0E0,3.6E1,6.2E1,5.1429033E-2,6.757244E-2,5.158419E-2,-2.1289427E-2,2.5212068E-2,5.6200065E-2,5.0540816E-2,-3.559869E-2,1.727409E-2,-3.4202307E-2,6.7775115E-2,-1.9167911E-2,-2.9949894E-2,8.081279E-2,4.0595446E-2,-6.3057184E-2],"split_indices":[25,16,30,39,54,30,57,40,54,40,40,40,57,8,39,0,0,0,0,0,0,0,0,0,0,0,0,0,0,0,0],"split_type":[0,0,0,0,0,0,0,0,0,0,0,0,0,0,0,0,0,0,0,0,0,0,0,0,0,0,0,0,0,0,0],"sum_hessian":[3.8621401E3,1.7236364E3,2.1385037E3,7.658462E2,9.577901E2,1.0337839E3,1.1047198E3,6.1409296E2,1.5175322E2,8.066518E2,1.5113834E2,8.9443524E2,1.393487E2,1.5654561E2,9.481742E2,6.792987E1,5.461631E2,1.4221458E2,9.538636E0,6.505963E2,1.560555E2,4.5379894E1,1.0575844E2,2.9338373E2,6.010515E2,1.1843718E2,2.0911518E1,1.4321445E2,1.3331169E1,1.8923233E1,9.29251E2],"tree_param":{"num_deleted":"0","num_feature":"58","num_nodes":"31","size_leaf_vector":"1"}},{"base_weights":[1.4888428E-2,7.957498E-1,-6.144658E-1,4.7781846E-1,1.1997035E0,-1.6638501E-1,-1.0201377E0,5.4226094E-1,-6.6822976E-1,1.261251E0,5.318528E-1,6.7581123E-1,-4.4150457E-1,-1.0918002E0,2.6165184E-1,3.8007554E-2,1.6074147E-2,7.173044E-2,-6.318744E-2,6.357593E-2,3.0828346E-3,3.5312533E-2,-4.4888776E-2,6.044953E-2,-3.449075E-2,-3.818318E-2,2.0583017E-2,-8.89565E-3,-5.92795E-2,8.542386E-2,-1.5184938E-2],"categories":[],"categories_nodes":[],"categories_segments":[],"categories_sizes":[],"default_left":[0,0,0,0,0,0,0,0,0,0,0,0,0,0,0,0,0,0,0,0,0,0,0,0,0,0,0,0,0,0,0],"id":12,"left_children":[1,3,5,7,9,11,13,15,17,19,21,23,25,27,29,-1,-1,-1,-1,-1,-1,-1,-1,-1,-1,-1,-1,-1,-1,-1,-1],"loss_changes":[1.8810048E3,2.185177E2,3.8499707E2,7.1321335E1,2.9876099E1,2.3420384E2,1.0257703E2,4.3320496E1,6.745117E1,8.341919E0,1.740403E1,1.8255779E2,2.0973193E2,8.9979004E1,4.9930286E1,0E0,0E0,0E0,0E0,0E0,0E0,0E0,0E0,0E0,0E0,0E0,0E0,0E0,0E0,0E0,0E0],"parents":[2147483647,0,0,1,1,2,2,3,3,4,4,5,5,6,6,7,7,8,8,9,9,10,10,11,11,12,12,13,13,14,14],"right_children":[2,4,6,8,10,12,14,16,18,20,22,24,26,28,30,-1,-1,-1,-1,-1,-1,-1,-1,-1,-1,-1,-1,-1,-1,-1,-1],"split_conditions":[5E0,1E0,8.857E1,4.2E1,4.5E1,0E0,3.05E1,2.9E1,5.85E1,1.05E2,5.6E1,3.7E1,2.95E1,7.35E1,9E0,3.8007554E-2,1.6074147E-2,7.173044E-2,-6.318744E-2,6.357593E-2,3.0828346E-3,3.5312533E-2,-4.4888776E-2,6.044953E-2,-3.449075E-2,-3.818318E-2,2.0583017E-2,-8.89565E-3,-5.92795E-2,8.542386E-2,-1.5184938E-2],"split_indices":[25,44,30,22,34,57,36,23,39,53,53,7,36,39,40,0,0,0,0,0,0,0,0,0,0,0,0,0,0,0,0],"split_type":[0,0,0,0,0,0,0,0,0,0,0,0,0,0,0,0,0,0,0,0,0,0,0,0,0,0,0,0,0,0,0],"sum_hessian":[3.8245574E3,1.706655E3,2.1179023E3,9.5684515E2,7.498099E2,1.00735443E3,1.1105479E3,9.066541E2,5.0191044E1,6.853197E2,6.4490204E1,2.4750555E2,7.598489E2,1.0519572E3,5.859069E1,4.5446716E2,4.5218698E2,1.0610563E1,3.958048E1,6.794145E2,5.9052267E0,5.8154964E1,6.3352375E0,1.7813042E2,6.937513E1,5.5168677E2,2.0816212E2,9.831567E1,9.536415E2,1.5609764E1,4.2980927E1],"tree_param":{"num_deleted":"0","num_feature":"58","num_nodes":"31","size_leaf_vector":"1"}},{"base_weights":[8.931452E-3,8.6209726E-1,-5.1870537E-1,1.2528713E0,6.220686E-1,-7.4802244E-1,4.0207887E-1,9.110995E-1,1.2851146E0,7.075137E-1,-3.269876E-1,7.9386586E-1,-9.2227244E-1,-3.8268052E-2,7.885487E-1,4.968158E-2,9.768336E-3,6.480175E-2,2.8124634E-2,4.7517303E-2,2.765118E-2,-8.705751E-3,-7.782672E-2,1.3117026E-2,5.9355207E-2,-1.4953527E-2,-5.9899997E-2,-1.6431129E-2,7.365935E-2,5.179711E-2,1.8672636E-2],"categories":[],"categories_nodes":[],"categories_segments":[],"categories_sizes":[],"default_left":[0,0,0,0,0,0,0,0,0,0,0,0,0,0,0,0,0,0,0,0,0,0,0,0,0,0,0,0,0,0,0],"id":13,"left_children":[1,3,5,7,9,11,13,15,17,19,21,23,25,27,29,-1,-1,-1,-1,-1,-1,-1,-1,-1,-1,-1,-1,-1,-1,-1,-1],"loss_changes":[1.7044828E3,1.3454175E2,4.9444684E2,4.2943115E0,7.327234E1,5.044806E2,7.959653E1,2.8093681E0,2.836975E0,3.0179901E1,1.3747735E1,3.9463745E1,2.8883728E2,9.7242546E1,2.4992615E1,0E0,0E0,0E0,0E0,0E0,0E0,0E0,0E0,0E0,0E0,0E0,0E0,0E0,0E0,0E0,0E0],"parents":[2147483647,0,0,1,1,2,2,3,3,4,4,5,5,6,6,7,7,8,8,9,9,10,10,11,11,12,12,13,13,14,14],"right_children":[2,4,6,8,10,12,14,16,18,20,22,24,26,28,30,-1,-1,-1,-1,-1,-1,-1,-1,-1,-1,-1,-1,-1,-1,-1,-1],"split_conditions":[1.6E1,1.4E1,2.25E1,8.445E0,1E1,4.45E1,2.45E1,1E1,1.137E1,9E0,1.06E2,5.429E1,1E0,4.5E1,1E1,4.968158E-2,9.768336E-3,6.480175E-2,2.8124634E-2,4.7517303E-2,2.765118E-2,-8.705751E-3,-7.782672E-2,1.3117026E-2,5.9355207E-2,-1.4953527E-2,-5.9899997E-2,-1.6431129E-2,7.365935E-2,5.179711E-2,1.8672636E-2],"split_indices":[27,39,36,2,48,39,24,54,2,16,53,30,51,37,48,0,0,0,0,0,0,0,0,0,0,0,0,0,0,0,0],"split_type":[0,0,0,0,0,0,0,0,0,0,0,0,0,0,0,0,0,0,0,0,0,0,0,0,0,0,0,0,0,0,0],"sum_hessian":[3.783389E3,1.4453577E3,2.3380312E3,5.4756903E2,8.9778864E2,1.8720798E3,4.6595148E2,5.0988647E1,4.9658038E2,8.239856E2,7.380304E1,1.8954213E2,1.6825377E3,2.1842627E2,2.475252E2,4.519477E1,5.7938757E0,4.8801514E2,8.5652485E0,3.1738412E2,5.066015E2,6.71647E1,6.6383376E0,8.166258E1,1.0787955E2,5.170418E2,1.165496E3,1.8421243E2,3.421382E1,1.5368614E2,9.3839066E1],"tree_param":{"num_deleted":"0","num_feature":"58","num_nodes":"31","size_leaf_vector":"1"}},{"base_weights":[-2.8048027E-3,8.259298E-1,-5.105545E-1,5.096409E-1,1.139729E0,-1.038426E-1,-9.662231E-1,7.83781E-2,6.0511035E-1,6.003068E-1,1.2203497E0,-2.4163915E-1,1.1719759E0,2.6804486E-3,-1.0429765E0,9.879426E-3,-8.753007E-2,3.42015E-2,-4.9238E-3,1.6272163E-2,6.568934E-2,3.866663E-3,6.161893E-2,1.6448416E-2,-3.376917E-2,6.246853E-2,-6.340038E-3,-2.3466207E-2,4.5826964E-2,-5.6157704E-2,-1.0549082E-2],"categories":[],"categories_nodes":[],"categories_segments":[],"categories_sizes":[],"default_left":[0,0,0,0,0,0,0,0,0,0,0,0,0,0,0,0,0,0,0,0,0,0,0,0,0,0,0,0,0,0,0],"id":14,"left_children":[1,3,5,7,9,11,13,15,17,19,21,23,25,27,29,-1,-1,-1,-1,-1,-1,-1,-1,-1,-1,-1,-1,-1,-1,-1,-1],"loss_changes":[1.5594801E3,1.3887402E2,4.257434E2,2.8911331E1,2.9585266E1,2.1419319E2,8.059015E1,2.8712605E1,3.2091064E1,1.7928883E1,8.276672E0,2.722507E2,1.217775E1,3.5600105E1,6.662488E1,0E0,0E0,0E0,0E0,0E0,0E0,0E0,0E0,0E0,0E0,0E0,0E0,0E0,0E0,0E0,0E0],"parents":[2147483647,0,0,1,1,2,2,3,3,4,4,5,5,6,6,7,7,8,8,9,9,10,10,11,11,12,12,13,13,14,14],"right_children":[2,4,6,8,10,12,14,16,18,20,22,24,26,28,30,-1,-1,-1,-1,-1,-1,-1,-1,-1,-1,-1,-1,-1,-1,-1,-1],"split_conditions":[1.6E1,1E0,8.929E1,7.928E0,2.019E3,8.889E1,6.45E1,2.1E1,2.9E1,9.032258E1,4.4E1,2.1E1,0E0,6.732673E-1,1.8E1,9.879426E-3,-8.753007E-2,3.42015E-2,-4.9238E-3,1.6272163E-2,6.568934E-2,3.866663E-3,6.161893E-2,1.6448416E-2,-3.376917E-2,6.246853E-2,-6.340038E-3,-2.3466207E-2,4.5826964E-2,-5.6157704E-2,-1.0549082E-2],"split_indices":[27,44,29,2,32,29,39,9,21,41,40,40,57,44,36,0,0,0,0,0,0,0,0,0,0,0,0,0,0,0,0],"split_type":[0,0,0,0,0,0,0,0,0,0,0,0,0,0,0,0,0,0,0,0,0,0,0,0,0,0,0,0,0,0,0],"sum_hessian":[3.7030762E3,1.406495E3,2.2965813E3,7.024289E2,7.040661E2,1.2144515E3,1.0821298E3,1.2780935E2,5.746195E2,9.3193085E1,6.1087305E2,1.0971664E3,1.17285095E2,7.953683E1,1.0025929E3,1.2124473E2,6.5646167E0,5.167038E2,5.7915745E1,6.885236E1,2.4340723E1,6.477845E0,6.043952E2,4.739842E2,6.2318225E2,1.1074293E2,6.542166E0,5.2928905E1,2.6607924E1,9.1398883E2,8.86041E1],"tree_param":{"num_deleted":"0","num_feature":"58","num_nodes":"31","size_leaf_vector":"1"}},{"base_weights":[6.558188E-3,-4.6221918E-1,8.3146346E-1,-7.2036976E-1,4.5482776E-1,1.1499004E0,5.5187947E-1,1.2917075E-1,-1.0046614E0,7.240783E-1,-3.490335E-1,7.242764E-1,1.207572E0,6.7746484E-1,-2.2992566E-1,3.554865E-2,-2.4912955E-2,4.2529646E-2,-5.3174E-2,7.117621E-2,2.5630077E-2,1.42571945E-2,-5.1595088E-2,4.4773657E-2,-3.0752167E-3,1.4610225E-2,6.1034065E-2,4.0534187E-2,1.0668019E-2,-2.8414794E-3,-8.594746E-2],"categories":[],"categories_nodes":[],"categories_segments":[],"categories_sizes":[],"default_left":[0,0,0,0,0,0,0,0,0,0,0,0,0,0,0,0,0,0,0,0,0,0,0,0,0,0,0,0,0,0,0],"id":15,"left_children":[1,3,5,7,9,11,13,15,17,19,21,23,25,27,29,-1,-1,-1,-1,-1,-1,-1,-1,-1,-1,-1,-1,-1,-1,-1,-1],"loss_changes":[1.4071302E3,5.4978845E2,1.16439575E2,4.376266E2,1.1089509E2,1.3785706E1,6.9452774E1,1.6679124E2,1.4946228E2,5.5554626E1,5.6360977E1,1.0460182E1,5.9379883E0,3.731964E1,2.5291203E1,0E0,0E0,0E0,0E0,0E0,0E0,0E0,0E0,0E0,0E0,0E0,0E0,0E0,0E0,0E0,0E0],"parents":[2147483647,0,0,1,1,2,2,3,3,4,4,5,5,6,6,7,7,8,8,9,9,10,10,11,11,12,12,13,13,14,14],"right_children":[2,4,6,8,10,12,14,16,18,20,22,24,26,28,30,-1,-1,-1,-1,-1,-1,-1,-1,-1,-1,-1,-1,-1,-1,-1,-1],"split_conditions":[8.833333E-1,2.45E1,3E1,0E0,1.65E1,7.009E0,9E0,3.525E1,4.8E1,9E0,7.5E0,9.333333E0,5.2E1,3E0,2.4E1,3.554865E-2,-2.4912955E-2,4.2529646E-2,-5.3174E-2,7.117621E-2,2.5630077E-2,1.42571945E-2,-5.1595088E-2,4.4773657E-2,-3.0752167E-3,1.4610225E-2,6.1034065E-2,4.0534187E-2,1.0668019E-2,-2.8414794E-3,-8.594746E-2],"split_indices":[44,36,39,57,40,1,13,7,39,40,26,51,40,5,9,0,0,0,0,0,0,0,0,0,0,0,0,0,0,0,0],"split_type":[0,0,0,0,0,0,0,0,0,0,0,0,0,0,0,0,0,0,0,0,0,0,0,0,0,0,0,0,0,0,0],"sum_hessian":[3.6358545E3,2.318791E3,1.3170636E3,1.8096831E3,5.091078E2,6.135645E2,7.0349915E2,4.539565E2,1.3557267E3,3.8148096E2,1.2762684E2,7.5643425E1,5.379211E2,6.063054E2,9.719374E1,2.3543912E2,2.1851738E2,4.1040417E1,1.3146863E3,8.656748E1,2.9491348E2,6.662556E1,6.1001278E1,6.19394E1,1.3704027E1,8.088273E0,5.2983276E2,4.7021295E2,1.3609244E2,8.846689E1,8.726854E0],"tree_param":{"num_deleted":"0","num_feature":"58","num_nodes":"31","size_leaf_vector":"1"}},{"base_weights":[3.8101557E-3,5.8066356E-1,-6.3991666E-1,1.1153638E0,3.1448382E-1,-8.823856E-1,1.56364E-1,1.1365329E0,-1.5328202E-1,4.988066E-1,-3.9397407E-1,-4.3478727E-2,-1.0966291E0,1.2332977E0,-5.2493557E-2,2.459705E-2,5.858155E-2,5.9139463E-3,-1.9689752E-2,4.34006E-2,1.729538E-2,4.4832654E-2,-2.5988117E-2,-2.5777338E-2,6.6333674E-2,5.563312E-3,-5.873725E-2,-2.9582178E-2,7.604983E-2,5.7041436E-2,-1.1831202E-2],"categories":[],"categories_nodes":[],"categories_segments":[],"categories_sizes":[],"default_left":[0,0,0,0,0,0,0,0,0,0,0,0,0,0,0,0,0,0,0,0,0,0,0,0,0,0,0,0,0,0,0],"id":16,"left_children":[1,3,5,7,9,11,13,15,17,19,21,23,25,27,29,-1,-1,-1,-1,-1,-1,-1,-1,-1,-1,-1,-1,-1,-1,-1,-1],"loss_changes":[1.3333046E3,2.6898816E2,3.2783777E2,1.7147827E1,1.6566196E2,2.337663E2,8.947739E1,1.313147E1,8.302224E-1,5.6315125E1,4.3280613E1,1.7322832E2,9.797803E1,3.5271805E1,7.3852554E1,0E0,0E0,0E0,0E0,0E0,0E0,0E0,0E0,0E0,0E0,0E0,0E0,0E0,0E0,0E0,0E0],"parents":[2147483647,0,0,1,1,2,2,3,3,4,4,5,5,6,6,7,7,8,8,9,9,10,10,11,11,12,12,13,13,14,14],"right_children":[2,4,6,8,10,12,14,16,18,20,22,24,26,28,30,-1,-1,-1,-1,-1,-1,-1,-1,-1,-1,-1,-1,-1,-1,-1,-1],"split_conditions":[3.6E1,3E1,9E0,1.22E2,1E1,0E0,9E0,6.022E0,2.3450154E3,9E0,3.45E1,3.6E1,6.2E1,3.05E1,5E0,2.459705E-2,5.858155E-2,5.9139463E-3,-1.9689752E-2,4.34006E-2,1.729538E-2,4.4832654E-2,-2.5988117E-2,-2.5777338E-2,6.6333674E-2,5.563312E-3,-5.873725E-2,-2.9582178E-2,7.604983E-2,5.7041436E-2,-1.1831202E-2],"split_indices":[27,39,36,53,48,57,40,1,50,16,39,34,39,36,57,0,0,0,0,0,0,0,0,0,0,0,0,0,0,0,0],"split_type":[0,0,0,0,0,0,0,0,0,0,0,0,0,0,0,0,0,0,0,0,0,0,0,0,0,0,0,0,0,0,0],"sum_hessian":[3.5875598E3,1.8921354E3,1.6954244E3,6.27278E2,1.2648574E3,1.2995476E3,3.9587686E2,6.171364E2,1.0141557E1,1.0040682E3,2.6078918E2,2.6473538E2,1.0348121E3,6.310916E1,3.3276767E2,3.3031082E1,5.8410535E2,5.121384E0,5.0201726E0,2.919883E2,7.1207983E2,2.234368E1,2.3844553E2,1.9759293E2,6.714246E1,6.2818626E1,9.719935E2,8.378384E0,5.4730778E1,4.344078E1,2.893269E2],"tree_param":{"num_deleted":"0","num_feature":"58","num_nodes":"31","size_leaf_vector":"1"}},{"base_weights":[-5.606293E-3,6.3136405E-1,-5.394922E-1,1.0916462E0,3.571827E-1,-7.6407486E-1,3.4019974E-1,2.3071238E-1,1.1507306E0,5.75167E-1,-1.2481824E-1,4.212935E-2,-9.915676E-1,-2.5884593E-1,7.3117906E-1,4.6682145E-2,-2.5356133E-2,5.8360245E-2,-1.0547299E-2,4.2275794E-2,1.913434E-2,-2.1506445E-2,3.0897288E-2,5.0910946E-2,-2.4558244E-2,4.1417178E-2,-5.272723E-2,-3.1258512E-2,6.803375E-2,7.280468E-2,2.9699957E-2],"categories":[],"categories_nodes":[],"categories_segments":[],"categories_sizes":[],"default_left":[0,0,0,0,0,0,0,0,0,0,0,0,0,0,0,0,0,0,0,0,0,0,0,0,0,0,0,0,0,0,0],"id":17,"left_children":[1,3,5,7,9,11,13,15,17,19,21,23,25,27,29,-1,-1,-1,-1,-1,-1,-1,-1,-1,-1,-1,-1,-1,-1,-1,-1],"loss_changes":[1.1953429E3,2.0168597E2,3.7817554E2,3.0000366E1,1.05877396E2,2.7953345E2,9.1612946E1,2.1588028E1,1.2905579E1,3.5599503E1,7.176964E1,1.7606317E2,1.3752686E2,9.3293015E1,2.220478E1,0E0,0E0,0E0,0E0,0E0,0E0,0E0,0E0,0E0,0E0,0E0,0E0,0E0,0E0,0E0,0E0],"parents":[2147483647,0,0,1,1,2,2,3,3,4,4,5,5,6,6,7,7,8,8,9,9,10,10,11,11,12,12,13,13,14,14],"right_children":[2,4,6,8,10,12,14,16,18,20,22,24,26,28,30,-1,-1,-1,-1,-1,-1,-1,-1,-1,-1,-1,-1,-1,-1,-1,-1],"split_conditions":[2.75E1,3E1,2.25E1,7.57E0,1.05E1,0E0,2.55E1,4.5E0,1.22E2,9E0,2.7E1,1.75E1,4.8E1,4.5E1,9E0,4.6682145E-2,-2.5356133E-2,5.8360245E-2,-1.0547299E-2,4.2275794E-2,1.913434E-2,-2.1506445E-2,3.0897288E-2,5.0910946E-2,-2.4558244E-2,4.1417178E-2,-5.272723E-2,-3.1258512E-2,6.803375E-2,7.280468E-2,2.9699957E-2],"split_indices":[27,39,36,2,13,57,24,13,53,16,36,7,39,37,40,0,0,0,0,0,0,0,0,0,0,0,0,0,0,0,0],"split_type":[0,0,0,0,0,0,0,0,0,0,0,0,0,0,0,0,0,0,0,0,0,0,0,0,0,0,0,0,0,0,0],"sum_hessian":[3.511994E3,1.6012706E3,1.9107233E3,5.960982E2,1.0051725E3,1.5222855E3,3.8843768E2,3.8754417E1,5.5734375E2,6.9194934E2,3.1322314E2,3.352888E2,1.1869967E3,1.5360149E2,2.3483621E2,1.964279E1,1.9111628E1,5.50893E2,6.45077E0,2.8564975E2,4.0629962E2,2.2242673E2,9.079641E1,1.1798205E2,2.1730673E2,3.909177E1,1.147905E3,1.2601804E2,2.7583437E1,3.5073242E1,1.9976297E2],"tree_param":{"num_deleted":"0","num_feature":"58","num_nodes":"31","size_leaf_vector":"1"}},{"base_weights":[5.9920084E-3,-4.2807993E-1,7.689398E-1,-6.6506976E-1,3.8218787E-1,1.0532476E0,4.5909858E-1,9.5588215E-2,-9.2977184E-1,6.451802E-1,-4.0017927E-1,1.2056031E0,8.676783E-1,1.7517962E-1,7.844108E-1,3.2957207E-2,-2.7672723E-2,7.732749E-3,-5.0932884E-2,6.4821176E-2,2.258531E-2,8.4182685E-3,-6.346577E-2,6.0638685E-2,3.199113E-2,4.6781372E-2,1.7200423E-2,1.4932299E-2,-2.321445E-2,4.5235418E-2,-2.5987063E-5],"categories":[],"categories_nodes":[],"categories_segments":[],"categories_sizes":[],"default_left":[0,0,0,0,0,0,0,0,0,0,0,0,0,0,0,0,0,0,0,0,0,0,0,0,0,0,0,0,0,0,0],"id":18,"left_children":[1,3,5,7,9,11,13,15,17,19,21,23,25,27,29,-1,-1,-1,-1,-1,-1,-1,-1,-1,-1,-1,-1,-1,-1,-1,-1],"loss_changes":[1.1619714E3,4.2981216E2,1.11354065E2,3.486264E2,1.0471065E2,1.7156982E1,5.627179E1,1.6447733E2,1.2401343E2,4.7006165E1,6.3809532E1,2.960205E-1,1.033345E1,2.6139706E1,2.6868164E1,0E0,0E0,0E0,0E0,0E0,0E0,0E0,0E0,0E0,0E0,0E0,0E0,0E0,0E0,0E0,0E0],"parents":[2147483647,0,0,1,1,2,2,3,3,4,4,5,5,6,6,7,7,8,8,9,9,10,10,11,11,12,12,13,13,14,14],"right_children":[2,4,6,8,10,12,14,16,18,20,22,24,26,28,30,-1,-1,-1,-1,-1,-1,-1,-1,-1,-1,-1,-1,-1,-1,-1,-1],"split_conditions":[8.833333E-1,2.45E1,9E0,0E0,1.65E1,6E0,1E2,3.525E1,6.2E1,9E0,3.3E1,3.1266666E2,6E0,1E1,1E1,3.2957207E-2,-2.7672723E-2,7.732749E-3,-5.0932884E-2,6.4821176E-2,2.258531E-2,8.4182685E-3,-6.346577E-2,6.0638685E-2,3.199113E-2,4.6781372E-2,1.7200423E-2,1.4932299E-2,-2.321445E-2,4.5235418E-2,-2.5987063E-5],"split_indices":[44,36,16,57,40,39,41,7,39,40,22,47,54,48,54,0,0,0,0,0,0,0,0,0,0,0,0,0,0,0,0],"split_type":[0,0,0,0,0,0,0,0,0,0,0,0,0,0,0,0,0,0,0,0,0,0,0,0,0,0,0,0,0,0,0],"sum_hessian":[3.5056501E3,2.2348254E3,1.2708246E3,1.7293022E3,5.0552325E2,6.608422E2,6.099823E2,4.4667587E2,1.2826263E3,3.785402E2,1.26983086E2,3.583695E2,3.0247272E2,3.2694556E2,2.8303677E2,2.3907048E2,2.0760538E2,9.7082985E1,1.1855435E3,8.474228E1,2.937979E2,7.749755E1,4.948554E1,3.521906E2,6.1789017E0,2.6668835E2,3.5784363E1,2.7470578E2,5.223977E1,2.4522496E2,3.7811802E1],"tree_param":{"num_deleted":"0","num_feature":"58","num_nodes":"31","size_leaf_vector":"1"}},{"base_weights":[7.353113E-3,6.1928046E-1,-4.7533858E-1,1.1165994E0,3.973522E-1,7.173824E-1,-5.941032E-1,1.1290513E0,5.727581E-3,4.4614023E-1,-9.957702E-1,8.435587E-1,-9.286806E-1,-7.60641E-1,2.8627008E-1,3.9669164E-2,5.812803E-2,4.046532E-2,1.5136011E-2,-6.0655963E-2,-4.450331E-3,-3.0979112E-2,4.822777E-2,-8.0909E-3,-6.9631614E-2,-8.318247E-3,-5.204038E-2,6.1855923E-2,4.537079E-3],"categories":[],"categories_nodes":[],"categories_segments":[],"categories_sizes":[],"default_left":[0,0,0,0,0,0,0,0,0,0,0,0,0,0,0,0,0,0,0,0,0,0,0,0,0,0,0,0,0],"id":19,"left_children":[1,3,5,7,9,11,13,15,-1,17,19,21,23,25,27,-1,-1,-1,-1,-1,-1,-1,-1,-1,-1,-1,-1,-1,-1],"loss_changes":[1.0131749E3,1.6627698E2,2.7227112E2,5.6190796E0,7.190979E1,3.73826E1,2.5613434E2,3.7905273E0,0E0,5.2434708E1,6.9193687E0,2.9700966E1,4.3319054E0,2.4409296E2,5.163527E1,0E0,0E0,0E0,0E0,0E0,0E0,0E0,0E0,0E0,0E0,0E0,0E0,0E0,0E0],"parents":[2147483647,0,0,1,1,2,2,3,3,4,4,5,5,6,6,7,7,9,9,10,10,11,11,12,12,13,13,14,14],"right_children":[2,4,6,8,10,12,14,16,-1,18,20,22,24,26,28,-1,-1,-1,-1,-1,-1,-1,-1,-1,-1,-1,-1,-1,-1],"split_conditions":[5E0,1.8E1,4.8E1,1.1483E1,1.25E2,1.24E2,2.95E1,8.445E0,5.727581E-3,9E0,7.353E0,6.121E0,6.239E0,2.2976976E-3,9E0,3.9669164E-2,5.812803E-2,4.046532E-2,1.5136011E-2,-6.0655963E-2,-4.450331E-3,-3.0979112E-2,4.822777E-2,-8.0909E-3,-6.9631614E-2,-8.318247E-3,-5.204038E-2,6.1855923E-2,4.537079E-3],"split_indices":[25,39,39,2,53,53,36,2,0,16,1,1,1,52,40,0,0,0,0,0,0,0,0,0,0,0,0,0,0],"split_type":[0,0,0,0,0,0,0,0,0,0,0,0,0,0,0,0,0,0,0,0,0,0,0,0,0,0,0,0,0],"sum_hessian":[3.4271677E3,1.5110833E3,1.9160846E3,4.6438843E2,1.0466948E3,1.7283086E2,1.7432537E3,4.585008E2,5.887637E0,1.0122643E3,3.443051E1,1.6120523E2,1.1625638E1,1.4661166E3,2.7713718E2,4.497659E1,4.135242E2,2.8461124E2,7.276531E2,2.736452E1,7.0659943E0,1.1840767E1,1.4936446E2,5.144878E0,6.48076E0,4.705016E2,9.956149E2,4.590622E1,2.3123097E2],"tree_param":{"num_deleted":"0","num_feature":"58","num_nodes":"29","size_leaf_vector":"1"}},{"base_weights":[4.8970955E-4,-3.9995328E-1,7.063689E-1,-6.5390396E-1,4.0426156E-1,1.0982963E0,4.731727E-1,6.9793105E-1,-7.8106207E-1,5.1367795E-1,-8.410606E-1,7.219601E-1,1.1370298E0,5.89046E-1,-2.1760528E-1,-6.2005585E-3,4.823878E-2,-1.4787524E-2,-5.1111657E-2,1.4512323E-2,4.6016034E-2,6.118058E-2,-6.213659E-2,4.7522184E-2,2.093959E-2,5.7692558E-2,3.4659754E-2,2.2421977E-2,4.365958E-2,3.28311E-2,-3.0447543E-2],"categories":[],"categories_nodes":[],"categories_segments":[],"categories_sizes":[],"default_left":[0,0,0,0,0,0,0,0,0,0,0,0,0,0,0,0,0,0,0,0,0,0,0,0,0,0,0,0,0,0,0],"id":20,"left_children":[1,3,5,7,9,11,13,15,17,19,21,23,25,27,29,-1,-1,-1,-1,-1,-1,-1,-1,-1,-1,-1,-1,-1,-1,-1,-1],"loss_changes":[9.533242E2,4.3987732E2,1.107926E2,2.8204462E2,7.1142845E1,5.390259E0,6.166504E1,3.1204033E1,1.746513E2,4.289319E1,3.7405685E1,2.6238995E0,1.8556519E0,2.5704834E1,3.8718117E1,0E0,0E0,0E0,0E0,0E0,0E0,0E0,0E0,0E0,0E0,0E0,0E0,0E0,0E0,0E0,0E0],"parents":[2147483647,0,0,1,1,2,2,3,3,4,4,5,5,6,6,7,7,8,8,9,9,10,10,11,11,12,12,13,13,14,14],"right_children":[2,4,6,8,10,12,14,16,18,20,22,24,26,28,30,-1,-1,-1,-1,-1,-1,-1,-1,-1,-1,-1,-1,-1,-1,-1,-1],"split_conditions":[8.833333E-1,2.45E1,1.4E1,4.8E1,4.2E1,8.445E0,1E1,5.185185E-1,1E0,7.5E0,1.4999999E-1,2E0,7.3333335E0,1E2,2.7E1,-6.2005585E-3,4.823878E-2,-1.4787524E-2,-5.1111657E-2,1.4512323E-2,4.6016034E-2,6.118058E-2,-6.213659E-2,4.7522184E-2,2.093959E-2,5.7692558E-2,3.4659754E-2,2.2421977E-2,4.365958E-2,3.28311E-2,-3.0447543E-2],"split_indices":[44,36,39,39,22,2,48,43,51,38,44,22,51,41,39,0,0,0,0,0,0,0,0,0,0,0,0,0,0,0,0],"split_type":[0,0,0,0,0,0,0,0,0,0,0,0,0,0,0,0,0,0,0,0,0,0,0,0,0,0,0,0,0,0,0],"sum_hessian":[3.3696372E3,2.1503823E3,1.2192548E3,1.6345221E3,5.158603E2,4.5275525E2,7.664995E2,1.3995102E2,1.494571E3,4.750066E2,4.0853706E1,4.4999256E1,4.0775598E2,6.565831E2,1.0991643E2,3.449657E1,1.0545444E2,4.972627E2,9.973084E2,3.0822293E2,1.6678365E2,6.153584E0,3.4700123E1,2.3834087E1,2.1165169E1,3.9055438E2,1.7201622E1,4.4182028E2,2.1476283E2,3.367439E1,7.6242035E1],"tree_param":{"num_deleted":"0","num_feature":"58","num_nodes":"31","size_leaf_vector":"1"}},{"base_weights":[8.082089E-3,3.6606038E-1,-7.615139E-1,1.0028998E0,1.5814582E-1,-9.560417E-1,1.1893452E-1,1.0751599E0,5.64181E-1,4.334344E-1,-2.3553136E-1,-2.9341477E-1,-1.0946758E0,-1.4172168E-1,9.475585E-1,5.454281E-2,1.6469775E-2,3.255404E-2,-1.5572813E-2,2.5143806E-2,-9.893929E-3,-2.5589777E-2,1.5982782E-2,6.816712E-2,-2.6150433E-2,3.9578434E-2,-5.7376206E-2,6.548651E-2,-1.6813008E-2,-1.8244358E-2,5.933217E-2],"categories":[],"categories_nodes":[],"categories_segments":[],"categories_sizes":[],"default_left":[0,0,0,0,0,0,0,0,0,0,0,0,0,0,0,0,0,0,0,0,0,0,0,0,0,0,0,0,0,0,0],"id":21,"left_children":[1,3,5,7,9,11,13,15,17,19,21,23,25,27,29,-1,-1,-1,-1,-1,-1,-1,-1,-1,-1,-1,-1,-1,-1,-1,-1],"loss_changes":[9.189287E2,3.0119482E2,1.81539E2,1.6844177E1,1.8634216E2,7.920807E1,4.1878525E1,5.0701904E0,6.5706444E0,4.449521E1,1.0883057E2,5.8941605E1,7.282129E1,4.2476505E1,1.5199566E1,0E0,0E0,0E0,0E0,0E0,0E0,0E0,0E0,0E0,0E0,0E0,0E0,0E0,0E0,0E0,0E0],"parents":[2147483647,0,0,1,1,2,2,3,3,4,4,5,5,6,6,7,7,8,8,9,9,10,10,11,11,12,12,13,13,14,14],"right_children":[2,4,6,8,10,12,14,16,18,20,22,24,26,28,30,-1,-1,-1,-1,-1,-1,-1,-1,-1,-1,-1,-1,-1,-1,-1,-1],"split_conditions":[4.9E1,3E1,9E0,5.325E1,1.6921666E2,0E0,7E1,1.01E2,1.22E2,3.45E1,2.45E1,2.15E1,6.2E1,9.5E0,7.436E1,5.454281E-2,1.6469775E-2,3.255404E-2,-1.5572813E-2,2.5143806E-2,-9.893929E-3,-2.5589777E-2,1.5982782E-2,6.816712E-2,-2.6150433E-2,3.9578434E-2,-5.7376206E-2,6.548651E-2,-1.6813008E-2,-1.8244358E-2,5.933217E-2],"split_indices":[27,39,36,49,47,57,16,53,53,7,36,7,39,33,30,0,0,0,0,0,0,0,0,0,0,0,0,0,0,0,0],"split_type":[0,0,0,0,0,0,0,0,0,0,0,0,0,0,0,0,0,0,0,0,0,0,0,0,0,0,0,0,0,0,0],"sum_hessian":[3.332493E3,2.2750415E3,1.0574513E3,5.585317E2,1.71651E3,8.6598926E2,1.9146202E2,4.776786E2,8.0853065E1,1.0100534E3,7.0645654E2,1.5064218E2,7.153471E2,1.4659256E2,4.4869453E1,4.671522E2,1.0526392E1,7.390343E1,6.9496365E0,9.102365E2,9.981694E1,4.7180228E2,2.3465424E2,1.7433605E1,1.3320857E2,1.8924717E1,6.9642236E2,1.6309393E1,1.3028317E2,6.792585E0,3.807687E1],"tree_param":{"num_deleted":"0","num_feature":"58","num_nodes":"31","size_leaf_vector":"1"}},{"base_weights":[1.0682501E-2,6.5983164E-1,-3.881993E-1,1.1061596E0,4.789296E-1,-7.1035795E-2,-8.366191E-1,1.1160166E0,2.428217E-2,7.541497E-1,3.391107E-1,-4.608269E-1,2.6091623E-1,-3.0864522E-2,-9.260528E-1,5.6231614E-2,2.924171E-2,4.1533824E-2,1.9199591E-2,6.508709E-3,2.3334695E-2,3.0011654E-2,-3.4111533E-2,2.1721868E-2,-3.0568078E-2,-1.7639132E-2,4.7147114E-2,-5.061685E-2,-8.183722E-3],"categories":[],"categories_nodes":[],"categories_segments":[],"categories_sizes":[],"default_left":[0,0,0,0,0,0,0,0,0,0,0,0,0,0,0,0,0,0,0,0,0,0,0,0,0,0,0,0,0],"id":22,"left_children":[1,3,5,7,9,11,13,15,-1,17,19,21,23,25,27,-1,-1,-1,-1,-1,-1,-1,-1,-1,-1,-1,-1,-1,-1],"loss_changes":[8.531986E2,1.00462585E2,2.9018286E2,1.3923035E0,3.405829E1,1.5507336E2,6.0877197E1,6.324463E-1,0E0,8.028015E0,1.5802765E1,1.3008441E2,9.83979E1,2.7461979E1,4.980298E1,0E0,0E0,0E0,0E0,0E0,0E0,0E0,0E0,0E0,0E0,0E0,0E0,0E0,0E0],"parents":[2147483647,0,0,1,1,2,2,3,3,4,4,5,5,6,6,7,7,9,9,10,10,11,11,12,12,13,13,14,14],"right_children":[2,4,6,8,10,12,14,16,-1,18,20,22,24,26,28,-1,-1,-1,-1,-1,-1,-1,-1,-1,-1,-1,-1,-1,-1],"split_conditions":[1.6E1,6E0,9.091E1,1E1,9E0,5.7E0,7.35E1,7.3333335E0,2.428217E-2,3E0,3.5E0,4.2E1,3.7E1,1.785E2,1.8E1,5.6231614E-2,2.924171E-2,4.1533824E-2,1.9199591E-2,6.508709E-3,2.3334695E-2,3.0011654E-2,-3.4111533E-2,2.1721868E-2,-3.0568078E-2,-1.7639132E-2,4.7147114E-2,-5.061685E-2,-8.183722E-3],"split_indices":[27,39,30,54,16,4,39,51,0,6,4,39,7,40,36,0,0,0,0,0,0,0,0,0,0,0,0,0,0],"split_type":[0,0,0,0,0,0,0,0,0,0,0,0,0,0,0,0,0,0,0,0,0,0,0,0,0,0,0,0,0],"sum_hessian":[3.2920618E3,1.2525891E3,2.0394727E3,3.5905173E2,8.9353735E2,1.1955839E3,8.438888E2,3.5225824E2,6.7934875E0,2.9879587E2,5.947415E2,5.496182E2,6.459657E2,8.451021E1,7.5937854E2,3.449868E2,7.271454E0,2.4605922E2,5.273666E1,2.266306E2,3.681109E2,9.444268E1,4.5517557E2,5.394137E2,1.0655196E2,6.423289E1,2.0277323E1,6.8173016E2,7.764841E1],"tree_param":{"num_deleted":"0","num_feature":"58","num_nodes":"29","size_leaf_vector":"1"}},{"base_weights":[-1.06067415E-2,3.769192E-1,-6.199792E-1,5.4412556E-1,-4.1558003E-1,3.3696866E-1,-8.1464773E-1,1.0112379E0,3.6156097E-1,3.7037846E-1,-5.9494025E-1,7.5331405E-2,1.0962918E0,-8.797491E-1,1.1987904E0,5.414601E-2,3.799876E-2,2.1902202E-2,-8.02435E-3,4.3753657E-2,-3.21729E-2,-3.5771664E-2,3.909327E-3,2.8239733E-2,-4.0763076E-2,-1.0389956E-2,6.1776657E-2,-4.8941847E-2,-2.9844171E-3,7.051294E-2,2.4129165E-2],"categories":[],"categories_nodes":[],"categories_segments":[],"categories_sizes":[],"default_left":[0,0,0,0,0,0,0,0,0,0,0,0,0,0,0,0,0,0,0,0,0,0,0,0,0,0,0,0,0,0,0],"id":23,"left_children":[1,3,5,7,9,11,13,15,17,19,21,23,25,27,29,-1,-1,-1,-1,-1,-1,-1,-1,-1,-1,-1,-1,-1,-1,-1,-1],"loss_changes":[7.622211E2,2.61788E2,2.341489E2,1.3844897E2,4.890953E1,4.2223373E1,1.3830316E2,7E0,4.699034E1,3.407997E1,2.2887352E1,7.049884E1,1.0283966E1,8.2084656E1,4.0232315E0,0E0,0E0,0E0,0E0,0E0,0E0,0E0,0E0,0E0,0E0,0E0,0E0,0E0,0E0,0E0,0E0],"parents":[2147483647,0,0,1,1,2,2,3,3,4,4,5,5,6,6,7,7,8,8,9,9,10,10,11,11,12,12,13,13,14,14],"right_children":[2,4,6,8,10,12,14,16,18,20,22,24,26,28,30,-1,-1,-1,-1,-1,-1,-1,-1,-1,-1,-1,-1,-1,-1,-1,-1],"split_conditions":[1E1,4.9E1,6.2E1,3E1,9.1304344E1,8.846E1,2.85E2,4E0,3E1,2.4528302E-1,9E0,4.05E1,7.081E0,4.2E1,1.7391305E-1,5.414601E-2,3.799876E-2,2.1902202E-2,-8.02435E-3,4.3753657E-2,-3.21729E-2,-3.5771664E-2,3.909327E-3,2.8239733E-2,-4.0763076E-2,-1.0389956E-2,6.1776657E-2,-4.8941847E-2,-2.9844171E-3,7.051294E-2,2.4129165E-2],"split_indices":[48,27,39,39,41,29,39,54,7,44,10,39,1,10,44,0,0,0,0,0,0,0,0,0,0,0,0,0,0,0,0],"split_type":[0,0,0,0,0,0,0,0,0,0,0,0,0,0,0,0,0,0,0,0,0,0,0,0,0,0,0,0,0,0,0],"sum_hessian":[3.2247468E3,1.9715355E3,1.2532113E3,1.6284296E3,3.43106E2,2.116567E2,1.0415547E3,4.55689E2,1.1727406E3,6.345369E1,2.7965228E2,1.586426E2,5.30141E1,1.00975055E3,3.1804136E1,3.5067938E2,1.0500963E2,1.02309283E3,1.496477E2,4.2501472E1,2.0952219E1,2.3711351E2,4.2538776E1,1.0273109E2,5.5911507E1,5.043134E0,4.7970966E1,9.0063635E2,1.0911415E2,2.343198E1,8.372156E0],"tree_param":{"num_deleted":"0","num_feature":"58","num_nodes":"31","size_leaf_vector":"1"}},{"base_weights":[9.2985766E-4,2.9295808E-1,-7.551271E-1,1.0622631E0,1.1149041E-1,-8.360549E-1,8.812328E-2,1.15051284E-1,1.084968E0,3.6157545E-1,-4.1912723E-1,-1.13020256E-1,-9.320135E-1,1.1780057E0,-2.6807043E-1,-3.2171678E-2,4.1875694E-2,3.4502145E-2,5.5891972E-2,2.0514198E-2,-2.6187787E-2,-3.1852927E-2,1.2369181E-2,-1.996879E-2,3.5967965E-2,-2.603142E-2,-5.2850213E-2,3.0222347E-2,7.489839E-2,-2.8655706E-2,5.6833804E-2],"categories":[],"categories_nodes":[],"categories_segments":[],"categories_sizes":[],"default_left":[0,0,0,0,0,0,0,0,0,0,0,0,0,0,0,0,0,0,0,0,0,0,0,0,0,0,0,0,0,0,0],"id":24,"left_children":[1,3,5,7,9,11,13,15,17,19,21,23,25,27,29,-1,-1,-1,-1,-1,-1,-1,-1,-1,-1,-1,-1,-1,-1,-1,-1],"loss_changes":[7.007082E2,3.1942694E2,6.0455475E1,9.206299E0,2.462636E2,5.5831604E1,3.1060862E1,7.330666E0,4.3780823E0,5.4699127E1,8.660709E1,2.3374731E1,3.579663E1,2.254467E0,2.6946924E1,0E0,0E0,0E0,0E0,0E0,0E0,0E0,0E0,0E0,0E0,0E0,0E0,0E0,0E0,0E0,0E0],"parents":[2147483647,0,0,1,1,2,2,3,3,4,4,5,5,6,6,7,7,8,8,9,9,10,10,11,11,12,12,13,13,14,14],"right_children":[2,4,6,8,10,12,14,16,18,20,22,24,26,28,30,-1,-1,-1,-1,-1,-1,-1,-1,-1,-1,-1,-1,-1,-1,-1,-1],"split_conditions":[8.857E1,7E0,2.9E1,4E1,1E1,7.35E1,9E0,6E0,7.129E0,3.9E1,6E1,1.725E2,1.6331429E2,1.1111111E-1,5.921294E2,-3.2171678E-2,4.1875694E-2,3.4502145E-2,5.5891972E-2,2.0514198E-2,-2.6187787E-2,-3.1852927E-2,1.2369181E-2,-1.996879E-2,3.5967965E-2,-2.603142E-2,-5.2850213E-2,3.0222347E-2,7.489839E-2,-2.8655706E-2,5.6833804E-2],"split_indices":[30,33,36,40,48,39,40,9,1,9,35,40,47,44,47,0,0,0,0,0,0,0,0,0,0,0,0,0,0,0,0],"split_type":[0,0,0,0,0,0,0,0,0,0,0,0,0,0,0,0,0,0,0,0,0,0,0,0,0,0,0,0,0,0,0],"sum_hessian":[3.1706387E3,2.2878657E3,8.827731E2,4.3528012E2,1.8525856E3,8.0548267E2,7.729044E1,1.0402581E1,4.2487756E2,1.2594656E3,5.9312E2,9.4758316E1,7.107243E2,1.8185526E1,5.910492E1,5.1548214E0,5.24776E0,3.518191E1,3.8969565E2,1.1945496E3,6.491596E1,4.4702197E2,1.4609802E2,7.1084206E1,2.3674112E1,1.6742438E2,5.432999E2,8.063933E0,1.0121592E1,4.9289604E1,9.815317E0],"tree_param":{"num_deleted":"0","num_feature":"58","num_nodes":"31","size_leaf_vector":"1"}},{"base_weights":[1.2230787E-2,3.775679E-1,-5.8179796E-1,9.1606003E-1,1.6980281E-1,4.5276573E-1,-7.179936E-1,9.7366124E-1,2.892637E-1,2.5797856E-1,-7.8846323E-1,1.1460588E0,4.7757667E-2,-7.6949525E-1,1.1417346E0,3.6334608E-2,5.193321E-2,2.4006119E-2,-3.932758E-2,8.16441E-3,3.901482E-2,3.1143416E-2,-5.7098746E-2,3.5756607E-2,6.285602E-2,-1.5534627E-2,3.9752193E-2,-6.8590543E-3,-4.3573584E-2,1.5267782E-2,6.48752E-2],"categories":[],"categories_nodes":[],"categories_segments":[],"categories_sizes":[],"default_left":[0,0,0,0,0,0,0,0,0,0,0,0,0,0,0,0,0,0,0,0,0,0,0,0,0,0,0,0,0,0,0],"id":25,"left_children":[1,3,5,7,9,11,13,15,17,19,21,23,25,27,29,-1,-1,-1,-1,-1,-1,-1,-1,-1,-1,-1,-1,-1,-1,-1,-1],"loss_changes":[6.792846E2,2.165964E2,1.6843954E2,1.9046051E1,1.18626816E2,3.9111237E1,1.02257996E2,6.785797E0,1.0323192E1,6.3286896E1,6.0121727E1,1.1118011E0,2.439147E1,6.600293E1,3.184246E0,0E0,0E0,0E0,0E0,0E0,0E0,0E0,0E0,0E0,0E0,0E0,0E0,0E0,0E0,0E0,0E0],"parents":[2147483647,0,0,1,1,2,2,3,3,4,4,5,5,6,6,7,7,8,8,9,9,10,10,11,11,12,12,13,13,14,14],"right_children":[2,4,6,8,10,12,14,16,18,20,22,24,26,28,30,-1,-1,-1,-1,-1,-1,-1,-1,-1,-1,-1,-1,-1,-1,-1,-1],"split_conditions":[1E1,9E0,3.6E1,3E0,3.9E1,6E0,4.5E1,4.8E1,1.4E1,1.575E2,5.55E1,1E0,4.8669727E3,4.688E1,7.333E1,3.6334608E-2,5.193321E-2,2.4006119E-2,-3.932758E-2,8.16441E-3,3.901482E-2,3.1143416E-2,-5.7098746E-2,3.5756607E-2,6.285602E-2,-1.5534627E-2,3.9752193E-2,-6.8590543E-3,-4.3573584E-2,1.5267782E-2,6.48752E-2],"split_indices":[48,16,33,6,9,33,37,40,49,40,34,55,50,29,29,0,0,0,0,0,0,0,0,0,0,0,0,0,0,0,0],"split_type":[0,0,0,0,0,0,0,0,0,0,0,0,0,0,0,0,0,0,0,0,0,0,0,0,0,0,0,0,0,0,0],"sum_hessian":[3.1270264E3,1.9365586E3,1.1904677E3,5.3773254E2,1.398826E3,1.3808275E2,1.0523849E3,4.9171494E2,4.601762E1,1.2819614E3,1.16864685E2,4.9907127E1,8.817563E1,1.0248821E3,2.7502832E1,1.0626109E2,3.8545386E2,3.978924E1,6.2283764E0,1.0868895E3,1.9507191E2,2.3179964E1,9.368472E1,1.2513283E1,3.7393845E1,6.018371E1,2.7991919E1,1.4282161E2,8.820605E2,5.015163E0,2.248767E1],"tree_param":{"num_deleted":"0","num_feature":"58","num_nodes":"31","size_leaf_vector":"1"}},{"base_weights":[-2.6074043E-3,2.6963013E-1,-7.364245E-1,9.701754E-1,9.906319E-2,1.132003E-1,-8.200335E-1,3.6502022E-1,1.0260946E0,3.2054552E-1,-3.6415517E-1,-2.4620712E-1,1.0346433E0,-4.0546414E-1,-9.608892E-1,2.9722512E-2,-3.181802E-2,1.9282924E-2,5.3071808E-2,1.8625567E-2,-3.0366769E-2,1.9004846E-2,-3.1091789E-2,-4.6949126E-2,4.0829007E-2,7.173704E-2,-1.1266935E-2,1.3747727E-2,-3.126157E-2,-5.2034646E-2,-2.3442334E-2],"categories":[],"categories_nodes":[],"categories_segments":[],"categories_sizes":[],"default_left":[0,0,0,0,0,0,0,0,0,0,0,0,0,0,0,0,0,0,0,0,0,0,0,0,0,0,0,0,0,0,0],"id":26,"left_children":[1,3,5,7,9,11,13,15,17,19,21,23,25,27,29,-1,-1,-1,-1,-1,-1,-1,-1,-1,-1,-1,-1,-1,-1,-1,-1],"loss_changes":[6.159244E2,2.6857022E2,5.9404114E1,1.433313E1,1.8589041E2,2.5572033E1,4.377948E1,9.656385E0,8.487183E0,5.942755E1,1.1278489E2,4.2330666E1,1.1389765E1,2.9456108E1,2.149176E1,0E0,0E0,0E0,0E0,0E0,0E0,0E0,0E0,0E0,0E0,0E0,0E0,0E0,0E0,0E0,0E0],"parents":[2147483647,0,0,1,1,2,2,3,3,4,4,5,5,6,6,7,7,8,8,9,9,10,10,11,11,12,12,13,13,14,14],"right_children":[2,4,6,8,10,12,14,16,18,20,22,24,26,28,30,-1,-1,-1,-1,-1,-1,-1,-1,-1,-1,-1,-1,-1,-1,-1,-1],"split_conditions":[8.929E1,1.35E1,6.45E1,8.445E0,1E1,1.5E0,1E0,1.071E1,5.2E1,3.9E1,1.65E1,8.171429E0,2E0,5.85E1,5E0,2.9722512E-2,-3.181802E-2,1.9282924E-2,5.3071808E-2,1.8625567E-2,-3.0366769E-2,1.9004846E-2,-3.1091789E-2,-4.6949126E-2,4.0829007E-2,7.173704E-2,-1.1266935E-2,1.3747727E-2,-3.126157E-2,-5.2034646E-2,-2.3442334E-2],"split_indices":[29,33,39,2,48,51,51,29,40,9,40,4,3,16,36,0,0,0,0,0,0,0,0,0,0,0,0,0,0,0,0],"split_type":[0,0,0,0,0,0,0,0,0,0,0,0,0,0,0,0,0,0,0,0,0,0,0,0,0,0,0,0,0,0,0],"sum_hessian":[3.080137E3,2.2473467E3,8.3279034E2,4.386618E2,1.8086848E3,7.4562645E1,7.582277E2,3.8060776E1,4.0060104E2,1.2239363E3,5.8474854E2,5.4431084E1,2.0131557E1,1.9376184E2,5.644659E2,3.1461964E1,6.598812E0,2.1885006E1,3.7871603E2,1.1598755E3,6.4060814E1,1.5020442E2,4.345441E2,3.305742E1,2.1373665E1,1.5121722E1,5.009836E0,4.7212166E1,1.4654967E2,4.8425296E2,8.021292E1],"tree_param":{"num_deleted":"0","num_feature":"58","num_nodes":"31","size_leaf_vector":"1"}},{"base_weights":[1.9455103E-3,-3.1773153E-1,5.858553E-1,-5.3266674E-1,3.0634022E-1,2.7028248E-1,8.545451E-1,-2.3336802E-1,-1.0086693E0,1.1250738E0,1.4559796E-1,-1.5654634E-1,4.343349E-1,9.203047E-1,1.4829435E-2,8.55138E-4,-3.1083113E-2,-5.2001715E-2,3.0222198E-2,6.323752E-2,-2.3852354E-3,-6.740932E-2,1.4790922E-2,-1.2620777E-2,4.472247E-2,2.7665988E-2,-4.5815795E-3,4.7498178E-2,1.327376E-2,-5.2150216E-2,1.4703378E-2],"categories":[],"categories_nodes":[],"categories_segments":[],"categories_sizes":[],"default_left":[0,0,0,0,0,0,0,0,0,0,0,0,0,0,0,0,0,0,0,0,0,0,0,0,0,0,0,0,0,0,0],"id":27,"left_children":[1,3,5,7,9,11,13,15,17,19,21,23,25,27,29,-1,-1,-1,-1,-1,-1,-1,-1,-1,-1,-1,-1,-1,-1,-1,-1],"loss_changes":[5.707751E2,2.6529437E2,9.138104E1,2.0912076E2,6.6498856E1,3.509159E1,3.2206177E1,8.800131E1,2.963855E1,1.3687843E1,9.6113045E1,1.4428407E1,2.2690407E1,1.013269E1,1.3430249E1,0E0,0E0,0E0,0E0,0E0,0E0,0E0,0E0,0E0,0E0,0E0,0E0,0E0,0E0,0E0,0E0],"parents":[2147483647,0,0,1,1,2,2,3,3,4,4,5,5,6,6,7,7,8,8,9,9,10,10,11,11,12,12,13,13,14,14],"right_children":[2,4,6,8,10,12,14,16,18,20,22,24,26,28,30,-1,-1,-1,-1,-1,-1,-1,-1,-1,-1,-1,-1,-1,-1,-1,-1],"split_conditions":[8.833333E-1,2.4E1,9.230769E1,5.1E1,9E0,2.019E3,1E1,4.25E0,6.45E1,2.75E1,1E1,1E0,4.5E0,9.333333E0,7.181E0,8.55138E-4,-3.1083113E-2,-5.2001715E-2,3.0222198E-2,6.323752E-2,-2.3852354E-3,-6.740932E-2,1.4790922E-2,-1.2620777E-2,4.472247E-2,2.7665988E-2,-4.5815795E-3,4.7498178E-2,1.327376E-2,-5.2150216E-2,1.4703378E-2],"split_indices":[44,36,41,34,40,0,54,51,35,21,40,56,15,51,2,0,0,0,0,0,0,0,0,0,0,0,0,0,0,0,0],"split_type":[0,0,0,0,0,0,0,0,0,0,0,0,0,0,0,0,0,0,0,0,0,0,0,0,0,0,0,0,0,0,0],"sum_hessian":[3.0547954E3,1.9744912E3,1.0803042E3,1.4688331E3,5.05658E2,4.9819235E2,5.821118E2,9.0317456E2,5.6565857E2,8.1506966E1,4.2415103E2,1.3833731E2,3.5985504E2,5.397028E2,4.2409035E1,5.4989594E2,3.5327866E2,5.553926E2,1.0266032E1,7.272757E1,8.7794E0,3.7663647E1,3.8648737E2,1.2781784E2,1.0519475E1,2.9340298E2,6.645205E1,5.156708E2,2.403204E1,7.9999967E0,3.440904E1],"tree_param":{"num_deleted":"0","num_feature":"58","num_nodes":"31","size_leaf_vector":"1"}},{"base_weights":[9.471378E-3,2.8834644E-1,-6.273624E-1,9.9660665E-1,1.5017469E-1,-8.000017E-1,1.4074269E-1,3.0940944E-1,1.0235871E0,3.4629244E-1,-3.2609868E-1,-1.8745314E-1,-9.453011E-1,1.3454233E0,-1.8361317E-2,-1.1073638E-2,3.6039285E-2,1.8748848E-2,5.1792365E-2,1.3466348E-2,3.8911037E-2,1.9999415E-2,-2.475936E-2,5.9506454E-2,-1.8223612E-2,3.8927447E-2,-5.0518073E-2,3.0486122E-2,7.956141E-2,-3.42021E-2,2.2005929E-2],"categories":[],"categories_nodes":[],"categories_segments":[],"categories_sizes":[],"default_left":[0,0,0,0,0,0,0,0,0,0,0,0,0,0,0,0,0,0,0,0,0,0,0,0,0,0,0,0,0,0,0],"id":28,"left_children":[1,3,5,7,9,11,13,15,17,19,21,23,25,27,29,-1,-1,-1,-1,-1,-1,-1,-1,-1,-1,-1,-1,-1,-1,-1,-1],"loss_changes":[5.3296844E2,2.0401483E2,1.2136307E2,5.8366394E0,1.6345212E2,6.617056E1,3.2428703E1,3.5176046E0,2.0169678E0,4.0872955E1,6.299056E1,3.600653E1,6.880499E1,2.1137276E0,4.646413E1,0E0,0E0,0E0,0E0,0E0,0E0,0E0,0E0,0E0,0E0,0E0,0E0,0E0,0E0,0E0,0E0],"parents":[2147483647,0,0,1,1,2,2,3,3,4,4,5,5,6,6,7,7,8,8,9,9,10,10,11,11,12,12,13,13,14,14],"right_children":[2,4,6,8,10,12,14,16,18,20,22,24,26,28,30,-1,-1,-1,-1,-1,-1,-1,-1,-1,-1,-1,-1,-1,-1,-1,-1],"split_conditions":[4.9E1,6E0,9E0,5.688E0,1E1,0E0,1.8003E2,2E0,2.02E3,1.59E2,4.45E1,2.15E1,6.2E1,2.325E1,6.05E1,-1.1073638E-2,3.6039285E-2,1.8748848E-2,5.1792365E-2,1.3466348E-2,3.8911037E-2,1.9999415E-2,-2.475936E-2,5.9506454E-2,-1.8223612E-2,3.8927447E-2,-5.0518073E-2,3.0486122E-2,7.956141E-2,-3.42021E-2,2.2005929E-2],"split_indices":[27,33,10,1,48,57,39,3,32,40,39,7,39,25,16,0,0,0,0,0,0,0,0,0,0,0,0,0,0,0,0],"split_type":[0,0,0,0,0,0,0,0,0,0,0,0,0,0,0,0,0,0,0,0,0,0,0,0,0,0,0,0,0,0,0],"sum_hessian":[2.9979707E3,2.085523E3,9.124479E2,3.3891998E2,1.7466029E3,7.449505E2,1.6749738E2,1.3510385E1,3.254096E2,1.2374574E3,5.0914542E2,1.4348528E2,6.014652E2,1.8236034E1,1.4926134E2,6.200747E0,7.309637E0,6.915759E0,3.1849384E2,1.0523705E3,1.85087E2,9.578489E1,4.133605E2,1.5360834E1,1.2812445E2,2.127624E1,5.8018896E2,5.874439E0,1.2361595E1,6.0574066E1,8.868727E1],"tree_param":{"num_deleted":"0","num_feature":"58","num_nodes":"31","size_leaf_vector":"1"}},{"base_weights":[-2.4675077E-3,5.1728743E-1,-3.092186E-1,1.0180665E0,3.3749196E-1,-4.8647407E-1,2.361014E-1,1.0278074E0,2.2613717E-2,-1.5770917E-1,4.0430441E-1,-1.142698E-1,-9.408276E-1,1.0476385E0,9.285737E-2,5.1794004E-2,2.2864453E-2,7.3021944E-3,-3.8673237E-2,2.6178762E-2,6.813494E-3,2.4711005E-2,-1.9792756E-2,-1.4820024E-2,-5.190757E-2,6.358942E-2,-5.992346E-3,1.8706772E-2,-2.6770819E-2],"categories":[],"categories_nodes":[],"categories_segments":[],"categories_sizes":[],"default_left":[0,0,0,0,0,0,0,0,0,0,0,0,0,0,0,0,0,0,0,0,0,0,0,0,0,0,0,0,0],"id":29,"left_children":[1,3,5,7,9,11,13,15,-1,17,19,21,23,25,27,-1,-1,-1,-1,-1,-1,-1,-1,-1,-1,-1,-1,-1,-1],"loss_changes":[4.6948694E2,9.788687E1,1.791672E2,8.8983154E-1,2.6776482E1,2.3625946E2,5.2778423E1,5.8792114E-1,0E0,1.830209E1,2.2621841E1,1.3225822E2,3.9008423E1,1.8064903E1,6.8976166E1,0E0,0E0,0E0,0E0,0E0,0E0,0E0,0E0,0E0,0E0,0E0,0E0,0E0,0E0],"parents":[2147483647,0,0,1,1,2,2,3,3,4,4,5,5,6,6,7,7,9,9,10,10,11,11,12,12,13,13,14,14],"right_children":[2,4,6,8,10,12,14,16,-1,18,20,22,24,26,28,-1,-1,-1,-1,-1,-1,-1,-1,-1,-1,-1,-1,-1,-1],"split_conditions":[1.6E1,6E0,1.8E1,4.5E0,3E1,1.11E2,9E0,9.333333E0,2.2613717E-2,2E0,3E1,3.15E1,6.097E0,2.75E1,2.31E2,5.1794004E-2,2.2864453E-2,7.3021944E-3,-3.8673237E-2,2.6178762E-2,6.813494E-3,2.4711005E-2,-1.9792756E-2,-1.4820024E-2,-5.190757E-2,6.358942E-2,-5.992346E-3,1.8706772E-2,-2.6770819E-2],"split_indices":[27,39,36,24,42,39,40,51,0,49,16,7,1,21,39,0,0,0,0,0,0,0,0,0,0,0,0,0,0],"split_type":[0,0,0,0,0,0,0,0,0,0,0,0,0,0,0,0,0,0,0,0,0,0,0,0,0,0,0,0,0],"sum_hessian":[2.9416797E3,1.0913988E3,1.850281E3,2.8648022E2,8.049185E2,1.3965094E3,4.537715E2,2.8042746E2,6.0527663E0,9.5446526E1,7.09472E2,7.686842E2,6.278252E2,6.665765E1,3.8711386E2,2.7530838E2,5.119082E0,6.46827E1,3.0763828E1,4.9000012E2,2.1947186E2,2.4282356E2,5.2586066E2,8.317198E1,5.4465326E2,5.5808727E1,1.0848927E1,2.6781836E2,1.192955E2],"tree_param":{"num_deleted":"0","num_feature":"58","num_nodes":"29","size_leaf_vector":"1"}},{"base_weights":[-8.835402E-4,2.4528849E-1,-5.9884596E-1,9.4328696E-1,1.0243527E-1,-7.940063E-1,1.8348749E-1,1.2956092E-1,9.6737933E-1,3.1576467E-1,-2.4911776E-1,-4.7026154E-1,-1.0349016E0,-9.709756E-2,9.380334E-1,-5.397417E-2,6.426477E-2,2.4515098E-2,5.031481E-2,1.1376008E-2,3.7003275E-2,1.9800149E-2,-1.916602E-2,5.6461763E-2,-2.8835783E-2,1.5078819E-2,-5.270508E-2,6.699946E-2,-1.782467E-2,-3.3822611E-3,5.620705E-2],"categories":[],"categories_nodes":[],"categories_segments":[],"categories_sizes":[],"default_left":[0,0,0,0,0,0,0,0,0,0,0,0,0,0,0,0,0,0,0,0,0,0,0,0,0,0,0,0,0,0,0],"id":30,"left_children":[1,3,5,7,9,11,13,15,17,19,21,23,25,27,29,-1,-1,-1,-1,-1,-1,-1,-1,-1,-1,-1,-1,-1,-1,-1,-1],"loss_changes":[4.3023926E2,2.0630035E2,1.303576E2,6.704254E0,1.2913951E2,5.24946E1,3.6423553E1,1.862781E1,5.595215E0,3.9860252E1,5.6549362E1,5.10224E1,1.0485687E1,4.7796494E1,8.835857E0,0E0,0E0,0E0,0E0,0E0,0E0,0E0,0E0,0E0,0E0,0E0,0E0,0E0,0E0,0E0,0E0],"parents":[2147483647,0,0,1,1,2,2,3,3,4,4,5,5,6,6,7,7,8,8,9,9,10,10,11,11,12,12,13,13,14,14],"right_children":[2,4,6,8,10,12,14,16,18,20,22,24,26,28,30,-1,-1,-1,-1,-1,-1,-1,-1,-1,-1,-1,-1,-1,-1,-1,-1],"split_conditions":[5E1,7E0,7.5E0,4E1,8E0,1.11E2,7E1,1E1,8.445E0,1.29E2,4.45E1,2.15E1,5.331E0,1.935E2,7.273E1,-5.397417E-2,6.426477E-2,2.4515098E-2,5.031481E-2,1.1376008E-2,3.7003275E-2,1.9800149E-2,-1.916602E-2,5.6461763E-2,-2.8835783E-2,1.5078819E-2,-5.270508E-2,6.699946E-2,-1.782467E-2,-3.3822611E-3,5.620705E-2],"split_indices":[27,33,36,40,48,39,16,8,2,40,39,7,1,39,30,0,0,0,0,0,0,0,0,0,0,0,0,0,0,0,0],"split_type":[0,0,0,0,0,0,0,0,0,0,0,0,0,0,0,0,0,0,0,0,0,0,0,0,0,0,0,0,0,0,0],"sum_hessian":[2.919792E3,2.0689297E3,8.508622E2,3.5006485E2,1.718865E3,6.8096643E2,1.6989574E2,1.0341568E1,3.397233E2,1.0698259E3,6.49039E2,2.924135E2,3.8855295E2,1.24796104E2,4.509964E1,5.102584E0,5.2389836E0,2.716074E1,3.1256253E2,8.8754254E2,1.8228342E2,1.1126326E2,5.3777576E2,1.7347769E1,2.7506573E2,5.19049E0,3.8336246E2,1.8126152E1,1.0666995E2,7.191791E0,3.790785E1],"tree_param":{"num_deleted":"0","num_feature":"58","num_nodes":"31","size_leaf_vector":"1"}},{"base_weights":[-1.7126426E-2,2.8539598E-1,-5.190532E-1,8.1072146E-1,1.03606775E-1,2.6374125E-1,-6.955125E-1,4.6800795E-1,9.392534E-1,2.1210735E-1,-4.921469E-1,9.131535E-3,1.0198447E0,-7.567002E-1,1.1573831E0,-4.309458E-2,2.7350916E-2,4.818118E-2,-1.8022394E-2,6.266819E-3,3.33838E-2,3.7387393E-3,-4.599968E-2,2.0797752E-2,-5.1600005E-2,5.723725E-2,1.0007094E-2,-4.3650456E-2,2.7419042E-3,2.7544538E-2,6.28505E-2],"categories":[],"categories_nodes":[],"categories_segments":[],"categories_sizes":[],"default_left":[0,0,0,0,0,0,0,0,0,0,0,0,0,0,0,0,0,0,0,0,0,0,0,0,0,0,0,0,0,0,0],"id":31,"left_children":[1,3,5,7,9,11,13,15,17,19,21,23,25,27,29,-1,-1,-1,-1,-1,-1,-1,-1,-1,-1,-1,-1,-1,-1,-1,-1],"loss_changes":[4.3733282E2,1.714931E2,1.4988419E2,1.9682129E1,8.656689E1,3.855136E1,1.0156683E2,1.425585E1,1.1111023E1,4.4618473E1,5.0167957E1,6.476042E1,4.8215714E0,8.0954254E1,7.051163E-1,0E0,0E0,0E0,0E0,0E0,0E0,0E0,0E0,0E0,0E0,0E0,0E0,0E0,0E0,0E0,0E0],"parents":[2147483647,0,0,1,1,2,2,3,3,4,4,5,5,6,6,7,7,8,8,9,9,10,10,11,11,12,12,13,13,14,14],"right_children":[2,4,6,8,10,12,14,16,18,20,22,24,26,28,30,-1,-1,-1,-1,-1,-1,-1,-1,-1,-1,-1,-1,-1,-1,-1,-1],"split_conditions":[1E1,9E0,6.2E1,5.2E1,6E1,8.788E1,2.85E2,2.05E1,3.6E1,1.545E2,9.1E1,4.45E1,2E0,4.2E1,6.444444E1,-4.309458E-2,2.7350916E-2,4.818118E-2,-1.8022394E-2,6.266819E-3,3.33838E-2,3.7387393E-3,-4.599968E-2,2.0797752E-2,-5.1600005E-2,5.723725E-2,1.0007094E-2,-4.3650456E-2,2.7419042E-3,2.7544538E-2,6.28505E-2],"split_indices":[48,16,39,40,27,30,39,33,9,40,39,39,3,10,41,0,0,0,0,0,0,0,0,0,0,0,0,0,0,0,0],"split_type":[0,0,0,0,0,0,0,0,0,0,0,0,0,0,0,0,0,0,0,0,0,0,0,0,0,0,0,0,0,0,0],"sum_hessian":[2.87718E3,1.795587E3,1.0815929E3,4.6028592E2,1.335301E3,1.9882762E2,8.827653E2,1.2744154E2,3.328444E2,1.1303958E3,2.0490535E2,1.4987645E2,4.895117E1,8.554049E2,2.7360418E1,6.313307E0,1.21128235E2,3.2709897E2,5.745434E0,9.511461E2,1.7924962E2,8.866152E1,1.1624382E2,1.08414185E2,4.1462265E1,4.196244E1,6.988733E0,7.480776E2,1.0732735E2,5.242188E0,2.211823E1],"tree_param":{"num_deleted":"0","num_feature":"58","num_nodes":"31","size_leaf_vector":"1"}},{"base_weights":[-3.7460949E-3,-2.791809E-1,5.0487304E-1,-4.6188676E-1,2.4902673E-1,9.6701777E-1,3.476812E-1,-9.833773E-2,-8.6837465E-1,4.5851105E-1,-4.301277E-1,9.810732E-1,1.5179153E-2,-7.264901E-2,4.4586977E-1,-1.323648E-2,5.517426E-2,-2.2722555E-2,-4.863344E-2,5.3036697E-2,1.4473292E-2,6.345386E-2,-3.209495E-2,3.2847147E-2,5.0504226E-2,-3.4568273E-2,1.3515683E-2,1.606078E-2,3.1566564E-2],"categories":[],"categories_nodes":[],"categories_segments":[],"categories_sizes":[],"default_left":[0,0,0,0,0,0,0,0,0,0,0,0,0,0,0,0,0,0,0,0,0,0,0,0,0,0,0,0,0],"id":32,"left_children":[1,3,5,7,9,11,13,15,17,19,21,23,-1,25,27,-1,-1,-1,-1,-1,-1,-1,-1,-1,-1,-1,-1,-1,-1],"loss_changes":[3.9712363E2,1.7763846E2,7.183873E1,2.0185886E2,6.76723E1,1.9022675E0,3.0813683E1,1.4506151E2,2.718637E1,3.645945E1,4.167279E1,1.3179932E0,0E0,3.0507118E1,1.367057E1,0E0,0E0,0E0,0E0,0E0,0E0,0E0,0E0,0E0,0E0,0E0,0E0,0E0,0E0],"parents":[2147483647,0,0,1,1,2,2,3,3,4,4,5,5,6,6,7,7,8,8,9,9,10,10,11,11,13,13,14,14],"right_children":[2,4,6,8,10,12,14,16,18,20,22,24,-1,26,28,-1,-1,-1,-1,-1,-1,-1,-1,-1,-1,-1,-1,-1,-1],"split_conditions":[8.833333E-1,2.45E1,6E0,1.11E2,1.8E1,1E1,8.14E0,3.6E1,1.66E2,9E0,1.935E2,7.246E0,1.5179153E-2,9.5625E-1,7.5E0,-1.323648E-2,5.517426E-2,-2.2722555E-2,-4.863344E-2,5.3036697E-2,1.4473292E-2,6.345386E-2,-3.209495E-2,3.2847147E-2,5.0504226E-2,-3.4568273E-2,1.3515683E-2,1.606078E-2,3.1566564E-2],"split_indices":[44,36,39,39,40,54,2,34,47,40,39,1,0,44,8,0,0,0,0,0,0,0,0,0,0,0,0,0,0],"split_type":[0,0,0,0,0,0,0,0,0,0,0,0,0,0,0,0,0,0,0,0,0,0,0,0,0,0,0,0,0],"sum_hessian":[2.831737E3,1.8373988E3,9.9433826E2,1.3653245E3,4.7207437E2,2.504085E2,7.4392975E2,7.217123E2,6.436122E2,3.6116177E2,1.1091258E2,2.4451016E2,5.898333E0,1.4094708E2,6.0298267E2,6.349705E2,8.674179E1,1.311478E2,5.1246436E2,7.742462E1,2.8373718E2,1.146123E1,9.945135E1,2.3000637E1,2.2150952E2,4.972239E1,9.122469E1,3.6305838E2,2.3992427E2],"tree_param":{"num_deleted":"0","num_feature":"58","num_nodes":"29","size_leaf_vector":"1"}},{"base_weights":[-4.1688196E-3,2.1489741E-1,-6.30946E-1,9.557908E-1,8.1540294E-2,-2.2752143E-1,-8.1872165E-1,8.90468E-1,6.315068E-2,1.5787217E-1,-7.616554E-1,3.032153E-1,-6.0678524E-1,9.2265226E-2,-8.552884E-1,-4.9722925E-2,4.7010895E-2,3.983805E-3,3.720618E-2,-2.4211681E-3,-5.4589596E-2,2.3683673E-2,-5.3250015E-2,-3.5296142E-2,7.296641E-2,2.1682352E-2,-4.5773122E-2],"categories":[],"categories_nodes":[],"categories_segments":[],"categories_sizes":[],"default_left":[0,0,0,0,0,0,0,0,0,0,0,0,0,0,0,0,0,0,0,0,0,0,0,0,0,0,0],"id":33,"left_children":[1,3,5,7,9,11,13,15,-1,17,19,21,23,-1,25,-1,-1,-1,-1,-1,-1,-1,-1,-1,-1,-1,-1],"loss_changes":[3.8295535E2,2.040847E2,5.444046E1,4.6369934E0,1.13016396E2,4.687568E1,5.0328247E1,2.6248245E1,0E0,7.366437E1,3.4248566E1,2.349266E1,2.9303837E1,0E0,3.834378E1,0E0,0E0,0E0,0E0,0E0,0E0,0E0,0E0,0E0,0E0,0E0,0E0],"parents":[2147483647,0,0,1,1,2,2,3,3,4,4,5,5,6,6,7,7,9,9,10,10,11,11,12,12,14,14],"right_children":[2,4,6,8,10,12,14,16,-1,18,20,22,24,-1,26,-1,-1,-1,-1,-1,-1,-1,-1,-1,-1,-1,-1],"split_conditions":[8.929E1,6E0,1.41E2,1.5E1,3.6E1,1.5E1,5.281E0,5.1E1,6.315068E-2,8.8E1,5.7E1,4.65E1,1.6912222E3,9.2265226E-2,7.05E1,-4.9722925E-2,4.7010895E-2,3.983805E-3,3.720618E-2,-2.4211681E-3,-5.4589596E-2,2.3683673E-2,-5.3250015E-2,-3.5296142E-2,7.296641E-2,2.1682352E-2,-4.5773122E-2],"split_indices":[29,33,47,13,9,40,1,40,0,29,34,9,50,0,39,0,0,0,0,0,0,0,0,0,0,0,0],"split_type":[0,0,0,0,0,0,0,0,0,0,0,0,0,0,0,0,0,0,0,0,0,0,0,0,0,0,0],"sum_hessian":[2.7860894E3,2.0652466E3,7.2084296E2,3.136191E2,1.7516273E3,2.3000618E2,4.908368E2,2.634509E2,5.0168205E1,1.6073391E3,1.4428825E2,9.5985756E1,1.3402042E2,5.6414237E0,4.8519537E2,6.04214E0,2.5740875E2,1.4196814E3,1.8765776E2,4.6199074E1,9.808919E1,8.622427E1,9.761484E0,1.2882649E2,5.1939373E0,2.122583E1,4.6396954E2],"tree_param":{"num_deleted":"0","num_feature":"58","num_nodes":"27","size_leaf_vector":"1"}},{"base_weights":[-1.4045098E-2,1.8339698E-1,-6.3111156E-1,9.1514623E-1,5.0004736E-2,-2.4305594E-1,-8.327914E-1,3.6229825E-1,9.575088E-1,2.2379512E-1,-3.0899572E-1,2.8068343E-1,-5.601035E-1,7.507123E-1,-9.1569227E-1,3.9627198E-2,-5.946425E-3,1.7705297E-2,4.901884E-2,1.3332665E-2,-2.86257E-2,-2.6946807E-2,1.6260928E-2,2.3634156E-2,-5.2750148E-2,-3.2253068E-2,5.4080345E-2,-2.1695096E-2,6.1828297E-2,7.3024474E-2,-4.7538217E-2],"categories":[],"categories_nodes":[],"categories_segments":[],"categories_sizes":[],"default_left":[0,0,0,0,0,0,0,0,0,0,0,0,0,0,0,0,0,0,0,0,0,0,0,0,0,0,0,0,0,0,0],"id":34,"left_children":[1,3,5,7,9,11,13,15,17,19,21,23,25,27,29,-1,-1,-1,-1,-1,-1,-1,-1,-1,-1,-1,-1,-1,-1,-1,-1],"loss_changes":[3.357775E2,2.0374176E2,5.19812E1,7.0174866E0,1.10389465E2,3.8524628E1,5.8657684E1,5.3838234E0,3.5917358E0,4.090793E1,8.443985E1,2.3302782E1,2.115012E1,1.3848363E1,3.690271E1,0E0,0E0,0E0,0E0,0E0,0E0,0E0,0E0,0E0,0E0,0E0,0E0,0E0,0E0,0E0,0E0],"parents":[2147483647,0,0,1,1,2,2,3,3,4,4,5,5,6,6,7,7,8,8,9,9,10,10,11,11,12,12,13,13,14,14],"right_children":[2,4,6,8,10,12,14,16,18,20,22,24,26,28,30,-1,-1,-1,-1,-1,-1,-1,-1,-1,-1,-1,-1,-1,-1,-1,-1],"split_conditions":[9.091E1,7E0,1.6331429E2,8.445E0,1E1,1.35E1,6.9E1,3E0,4E1,3.9E1,6E1,4.05E1,7.35E1,8.2E1,5.281E0,3.9627198E-2,-5.946425E-3,1.7705297E-2,4.901884E-2,1.3332665E-2,-2.86257E-2,-2.6946807E-2,1.6260928E-2,2.3634156E-2,-5.2750148E-2,-3.2253068E-2,5.4080345E-2,-2.1695096E-2,6.1828297E-2,7.3024474E-2,-4.7538217E-2],"split_indices":[30,33,47,2,48,40,39,54,40,9,35,9,13,53,1,0,0,0,0,0,0,0,0,0,0,0,0,0,0,0,0],"split_type":[0,0,0,0,0,0,0,0,0,0,0,0,0,0,0,0,0,0,0,0,0,0,0,0,0,0,0,0,0,0,0],"sum_hessian":[2.7530798E3,2.0865144E3,6.665655E2,3.2035474E2,1.7661595E3,2.2908563E2,4.3747986E2,2.3820202E1,2.9653455E2,1.1904388E3,5.757207E2,8.644947E1,1.4263617E2,2.1162775E1,4.1631708E2,1.2063933E1,1.1756269E1,1.1730736E1,2.848038E2,1.1305872E3,5.9851692E1,4.2269427E2,1.5302647E2,7.643186E1,1.0017611E1,1.364838E2,6.152362E0,6.2018185E0,1.4960957E1,5.1686597E0,4.111484E2],"tree_param":{"num_deleted":"0","num_feature":"58","num_nodes":"31","size_leaf_vector":"1"}},{"base_weights":[-3.9680493E-3,2.5254938E-1,-4.439106E-1,9.0374655E-1,1.3115273E-1,2.6387402E-1,-6.0628754E-1,1.2007184E-1,9.3632156E-1,1.8472037E-1,-8.606253E-1,3.5813794E-2,9.4493645E-1,-8.520327E-1,1.8408966E-1,-3.774294E-2,5.1094074E-2,2.5293201E-2,4.88513E-2,1.4104609E-2,-1.5144157E-2,2.734162E-2,-5.6616034E-2,1.9930629E-2,-4.417075E-2,1.7522583E-2,5.5280287E-2,1.3531721E-3,-4.4702373E-2,2.1489846E-2,-4.9133386E-2],"categories":[],"categories_nodes":[],"categories_segments":[],"categories_sizes":[],"default_left":[0,0,0,0,0,0,0,0,0,0,0,0,0,0,0,0,0,0,0,0,0,0,0,0,0,0,0,0,0,0,0],"id":35,"left_children":[1,3,5,7,9,11,13,15,17,19,21,23,25,27,29,-1,-1,-1,-1,-1,-1,-1,-1,-1,-1,-1,-1,-1,-1,-1,-1],"loss_changes":[3.110796E2,1.3747385E2,1.1692166E2,6.809387E0,7.8303986E1,2.953804E1,1.6072125E2,1.1121908E1,3.8530884E0,6.637749E1,2.9824162E1,4.864135E1,3.9776459E0,2.3325928E1,5.716823E1,0E0,0E0,0E0,0E0,0E0,0E0,0E0,0E0,0E0,0E0,0E0,0E0,0E0,0E0,0E0,0E0],"parents":[2147483647,0,0,1,1,2,2,3,3,4,4,5,5,6,6,7,7,8,8,9,9,10,10,11,11,12,12,13,13,14,14],"right_children":[2,4,6,8,10,12,14,16,18,20,22,24,26,28,30,-1,-1,-1,-1,-1,-1,-1,-1,-1,-1,-1,-1,-1,-1,-1,-1],"split_conditions":[1E1,7E0,6.2E1,4E1,4.8E1,8.788E1,2.9E1,7.5E0,9.716E0,5.55E1,1.5066E2,4.45E1,1E0,1.714E1,2.97E1,-3.774294E-2,5.1094074E-2,2.5293201E-2,4.88513E-2,1.4104609E-2,-1.5144157E-2,2.734162E-2,-5.6616034E-2,1.9930629E-2,-4.417075E-2,1.7522583E-2,5.5280287E-2,1.3531721E-3,-4.4702373E-2,2.1489846E-2,-4.9133386E-2],"split_indices":[48,33,39,40,9,30,36,8,2,7,39,39,55,29,40,0,0,0,0,0,0,0,0,0,0,0,0,0,0,0,0],"split_type":[0,0,0,0,0,0,0,0,0,0,0,0,0,0,0,0,0,0,0,0,0,0,0,0,0,0,0,0,0,0,0],"sum_hessian":[2.753514E3,1.739754E3,1.01375995E3,2.7184628E2,1.4679077E3,1.8899821E2,8.247617E2,1.1129378E1,2.6071692E2,1.3938445E3,7.406329E1,1.427694E2,4.6228817E1,6.290573E2,1.9570442E2,5.7729354E0,5.356443E0,2.4263834E1,2.3645308E2,1.1623596E3,2.3148477E2,1.1738027E1,6.2325268E1,1.0297646E2,3.9792934E1,1.0851074E1,3.5377743E1,2.871759E1,6.003397E2,1.6244301E2,3.3261402E1],"tree_param":{"num_deleted":"0","num_feature":"58","num_nodes":"31","size_leaf_vector":"1"}},{"base_weights":[-1.8962393E-2,5.005707E-1,-2.3633564E-1,9.1733444E-1,3.137283E-1,-2.831168E-2,-5.360874E-1,9.4524384E-1,7.977198E-3,5.475991E-1,1.4976995E-1,3.3073008E-1,-1.681158E-1,-7.237469E-1,1.2060912E-1,5.01687E-2,3.4973785E-2,2.9873023E-2,-2.2393253E-2,1.1768305E-2,-1.7957596E-2,-2.9362679E-2,2.632971E-2,-2.4359679E-2,1.2667352E-2,-1.1405699E-2,-4.3351058E-2,-3.8455185E-2,1.6462542E-2],"categories":[],"categories_nodes":[],"categories_segments":[],"categories_sizes":[],"default_left":[0,0,0,0,0,0,0,0,0,0,0,0,0,0,0,0,0,0,0,0,0,0,0,0,0,0,0,0,0],"id":36,"left_children":[1,3,5,7,9,11,13,15,-1,17,19,21,23,25,27,-1,-1,-1,-1,-1,-1,-1,-1,-1,-1,-1,-1,-1,-1],"loss_changes":[3.0406442E2,6.1414795E1,1.1833644E2,4.9569244E0,2.0992275E1,5.6407597E1,9.595108E1,2.3197327E0,0E0,1.1637894E1,1.4318466E1,5.709706E1,1.0892756E2,4.2661194E1,3.2697285E1,0E0,0E0,0E0,0E0,0E0,0E0,0E0,0E0,0E0,0E0,0E0,0E0,0E0,0E0],"parents":[2147483647,0,0,1,1,2,2,3,3,4,4,5,5,6,6,7,7,9,9,10,10,11,11,12,12,13,13,14,14],"right_children":[2,4,6,8,10,12,14,16,-1,18,20,22,24,26,28,-1,-1,-1,-1,-1,-1,-1,-1,-1,-1,-1,-1,-1,-1],"split_conditions":[3E1,3E1,4.9E1,2.510689E3,9E0,1.35E1,9E0,6E0,7.977198E-3,2.925E1,1.8E1,8.511E1,1.5E2,0E0,1.4E1,5.01687E-2,3.4973785E-2,2.9873023E-2,-2.2393253E-2,1.1768305E-2,-1.7957596E-2,-2.9362679E-2,2.632971E-2,-2.4359679E-2,1.2667352E-2,-1.1405699E-2,-4.3351058E-2,-3.8455185E-2,1.6462542E-2],"split_indices":[16,39,27,50,16,40,36,53,0,7,15,28,40,57,21,0,0,0,0,0,0,0,0,0,0,0,0,0,0],"split_type":[0,0,0,0,0,0,0,0,0,0,0,0,0,0,0,0,0,0,0,0,0,0,0,0,0,0,0,0,0],"sum_hessian":[2.6893706E3,7.9273627E2,1.8966343E3,2.4357112E2,5.4916516E2,1.1205962E3,7.76038E2,2.3456117E2,9.009945E0,2.2488234E2,3.242828E2,3.1347873E2,8.071175E2,6.034432E2,1.7259486E2,1.8595453E2,4.860664E1,2.1472672E2,1.0155622E1,2.7828418E2,4.5998642E1,5.459646E1,2.5888226E2,4.592205E2,3.4789697E2,1.3619337E2,4.672498E2,3.2020443E1,1.4057443E2],"tree_param":{"num_deleted":"0","num_feature":"58","num_nodes":"29","size_leaf_vector":"1"}},{"base_weights":[7.2456156E-3,2.0460543E-1,-5.113051E-1,3.9257613E-1,-1.6152768E-1,-6.849971E-1,1.1929501E-1,9.238676E-1,2.9557738E-1,4.766079E-1,-3.3415172E-1,-3.9295444E-1,-1.0002984E0,-8.594668E-1,3.54829E-1,2.066051E-3,4.7433026E-2,1.1070879E-2,3.3093847E-2,3.383896E-2,-2.1280421E-2,-3.0741183E-2,9.358401E-3,3.9000828E-2,-2.5407752E-2,-5.134015E-2,6.423324E-3,-5.1537056E-2,1.7585894E-3,-3.431527E-2,2.558356E-2],"categories":[],"categories_nodes":[],"categories_segments":[],"categories_sizes":[],"default_left":[0,0,0,0,0,0,0,0,0,0,0,0,0,0,0,0,0,0,0,0,0,0,0,0,0,0,0,0,0,0,0],"id":37,"left_children":[1,3,5,7,9,11,13,15,17,19,21,23,25,27,29,-1,-1,-1,-1,-1,-1,-1,-1,-1,-1,-1,-1,-1,-1,-1,-1],"loss_changes":[2.727031E2,1.3292409E2,8.058208E1,6.533487E1,7.2479485E1,5.2465027E1,3.732323E1,4.235321E0,2.9144836E1,2.5760448E1,7.582669E1,4.1347294E1,8.457611E0,4.8744736E0,2.1748314E1,0E0,0E0,0E0,0E0,0E0,0E0,0E0,0E0,0E0,0E0,0E0,0E0,0E0,0E0,0E0,0E0],"parents":[2147483647,0,0,1,1,2,2,3,3,4,4,5,5,6,6,7,7,8,8,9,9,10,10,11,11,12,12,13,13,14,14],"right_children":[2,4,6,8,10,12,14,16,18,20,22,24,26,28,30,-1,-1,-1,-1,-1,-1,-1,-1,-1,-1,-1,-1,-1,-1,-1,-1],"split_conditions":[5E1,8E0,7.5E0,6E0,4.45E1,1.215E2,1.4E1,6.703E0,1.35E2,3.4113634E-2,6E1,2.15E1,5E0,1.95E1,5.25E1,2.066051E-3,4.7433026E-2,1.1070879E-2,3.3093847E-2,3.383896E-2,-2.1280421E-2,-3.0741183E-2,9.358401E-3,3.9000828E-2,-2.5407752E-2,-5.134015E-2,6.423324E-3,-5.1537056E-2,1.7585894E-3,-3.431527E-2,2.558356E-2],"split_indices":[27,48,36,39,39,39,21,2,40,52,35,7,14,11,13,0,0,0,0,0,0,0,0,0,0,0,0,0,0,0,0],"split_type":[0,0,0,0,0,0,0,0,0,0,0,0,0,0,0,0,0,0,0,0,0,0,0,0,0,0,0,0,0,0,0],"sum_hessian":[2.661616E3,1.9285283E3,7.330876E2,1.274235E3,6.542934E2,5.746712E2,1.5841635E2,1.94749E2,1.079486E3,1.3874742E2,5.15546E2,3.0008856E2,2.7458267E2,2.99569E1,1.2845946E2,5.4307775E0,1.893182E2,8.997352E2,1.7975073E2,1.13860435E2,2.4886982E1,3.349462E2,1.8059981E2,2.6062645E1,2.740259E2,2.6841544E2,6.1672115E0,2.4951801E1,5.0050993E0,1.6155294E1,1.1230415E2],"tree_param":{"num_deleted":"0","num_feature":"58","num_nodes":"31","size_leaf_vector":"1"}},{"base_weights":[7.881898E-3,2.3711334E-1,-3.8986874E-1,1.1222919E-1,7.363952E-1,3.482055E-1,-5.1294047E-1,1.6263285E-1,-8.5896105E-1,8.3438873E-1,-1.4146833E-1,9.554787E-1,8.512626E-2,-5.6759435E-1,1.0372553E0,1.0139995E-2,-3.227478E-2,4.117458E-2,-5.781565E-2,1.1486746E-2,4.433315E-2,-2.546227E-2,4.881997E-2,1.5054752E-2,5.7140984E-2,1.7166322E-2,-6.305871E-2,-6.9823205E-3,-3.642398E-2,6.383724E-2,2.5289286E-2],"categories":[],"categories_nodes":[],"categories_segments":[],"categories_sizes":[],"default_left":[0,0,0,0,0,0,0,0,0,0,0,0,0,0,0,0,0,0,0,0,0,0,0,0,0,0,0,0,0,0,0],"id":38,"left_children":[1,3,5,7,9,11,13,15,17,19,21,23,25,27,29,-1,-1,-1,-1,-1,-1,-1,-1,-1,-1,-1,-1,-1,-1,-1,-1],"loss_changes":[2.4127487E2,1.0454732E2,8.8151825E1,6.602964E1,2.904776E1,2.2111126E1,7.1190216E1,4.1729675E1,3.4736435E1,9.2439575E0,1.5128534E1,4.622738E0,3.49753E1,5.5103027E1,2.6959057E0,0E0,0E0,0E0,0E0,0E0,0E0,0E0,0E0,0E0,0E0,0E0,0E0,0E0,0E0,0E0,0E0],"parents":[2147483647,0,0,1,1,2,2,3,3,4,4,5,5,6,6,7,7,8,8,9,9,10,10,11,11,12,12,13,13,14,14],"right_children":[2,4,6,8,10,12,14,16,18,20,22,24,26,28,30,-1,-1,-1,-1,-1,-1,-1,-1,-1,-1,-1,-1,-1,-1,-1,-1],"split_conditions":[1E1,1.59E2,3.5E1,4.8E1,1.01E2,6E0,4.5E1,1.2E1,5.55E1,7.054E0,1.55E1,1E0,3.4113634E-2,6.25E1,2.3450154E3,1.0139995E-2,-3.227478E-2,4.117458E-2,-5.781565E-2,1.1486746E-2,4.433315E-2,-2.546227E-2,4.881997E-2,1.5054752E-2,5.7140984E-2,1.7166322E-2,-6.305871E-2,-6.9823205E-3,-3.642398E-2,6.383724E-2,2.5289286E-2],"split_indices":[48,40,33,9,53,33,37,26,34,2,25,55,52,29,50,0,0,0,0,0,0,0,0,0,0,0,0,0,0,0,0],"split_type":[0,0,0,0,0,0,0,0,0,0,0,0,0,0,0,0,0,0,0,0,0,0,0,0,0,0,0,0,0,0,0],"sum_hessian":[2.6432056E3,1.6772052E3,9.6600024E2,1.3430969E3,3.3410837E2,1.3766495E2,8.283353E2,1.278018E3,6.5078865E1,3.0062473E2,3.3483658E1,4.0418327E1,9.724662E1,8.010444E2,2.7290915E1,1.2185739E3,5.944415E1,9.375732E0,5.5703133E1,2.456576E1,2.7605896E2,2.5809153E1,7.6745048E0,9.866241E0,3.0552086E1,8.25351E1,1.4711514E1,2.1963278E2,5.814116E2,1.7363283E1,9.927631E0],"tree_param":{"num_deleted":"0","num_feature":"58","num_nodes":"31","size_leaf_vector":"1"}},{"base_weights":[-5.2465275E-3,5.9264153E-1,-1.6616933E-1,6.477925E-1,-8.703403E-1,6.907252E-2,-5.1300466E-1,-1.0347485E-1,7.481054E-1,-1.3020447E0,3.981366E-3,1.5448837E-1,-4.8432222E-1,-7.191376E-1,1.4237395E-1,-2.9929552E-2,2.9908871E-2,1.1533456E-2,4.180086E-2,-3.0644713E-2,-7.909543E-2,1.1317362E-2,-2.8364468E-2,-4.9001694E-2,-7.0023E-3,-1.9382242E-2,-4.520318E-2,1.563887E-2,-3.269147E-2],"categories":[],"categories_nodes":[],"categories_segments":[],"categories_sizes":[],"default_left":[0,0,0,0,0,0,0,0,0,0,0,0,0,0,0,0,0,0,0,0,0,0,0,0,0,0,0,0,0],"id":39,"left_children":[1,3,5,7,9,11,13,15,17,19,-1,21,23,25,27,-1,-1,-1,-1,-1,-1,-1,-1,-1,-1,-1,-1,-1,-1],"loss_changes":[2.4749657E2,4.486165E1,1.6541972E2,3.979944E1,8.545503E0,5.7260254E1,1.108358E2,2.254338E1,2.0850525E1,1.27524E0,0E0,5.4573418E1,2.7444668E1,3.769638E1,2.707328E1,0E0,0E0,0E0,0E0,0E0,0E0,0E0,0E0,0E0,0E0,0E0,0E0,0E0,0E0],"parents":[2147483647,0,0,1,1,2,2,3,3,4,4,5,5,6,6,7,7,8,8,9,9,11,11,12,12,13,13,14,14],"right_children":[2,4,6,8,10,12,14,16,18,20,-1,22,24,26,28,-1,-1,-1,-1,-1,-1,-1,-1,-1,-1,-1,-1,-1,-1],"split_conditions":[4.8E1,1.24E2,1E1,3.264E1,7.6E1,5.45E1,2.9E1,5.429E1,8.092E0,6.121E0,3.981366E-3,3.9E1,3E1,1.05E2,2.97E1,-2.9929552E-2,2.9908871E-2,1.1533456E-2,4.180086E-2,-3.0644713E-2,-7.909543E-2,1.1317362E-2,-2.8364468E-2,-4.9001694E-2,-7.0023E-3,-1.9382242E-2,-4.520318E-2,1.563887E-2,-3.269147E-2],"split_indices":[39,53,48,40,28,7,36,30,2,1,0,9,25,39,40,0,0,0,0,0,0,0,0,0,0,0,0,0,0],"split_type":[0,0,0,0,0,0,0,0,0,0,0,0,0,0,0,0,0,0,0,0,0,0,0,0,0,0,0,0,0],"sum_hessian":[2.5693242E3,5.440292E2,2.0252949E3,5.2507104E2,1.8958128E1,1.2075039E3,8.177911E2,6.1845776E1,4.632253E2,1.2652418E1,6.305711E0,1.0469843E3,1.6051959E2,6.2200806E2,1.9578302E2,3.6388676E1,2.5457098E1,6.806141E1,3.9516388E2,5.0361404E0,7.6162777E0,9.531228E2,9.3861534E1,6.465503E1,9.586456E1,2.2439986E2,3.976082E2,1.6201855E2,3.376446E1],"tree_param":{"num_deleted":"0","num_feature":"58","num_nodes":"29","size_leaf_vector":"1"}},{"base_weights":[1.1210505E-2,2.2630884E-1,-3.6992282E-1,8.255376E-1,1.2920848E-1,2.629042E-1,-5.2580607E-1,-3.7960466E-3,8.6023945E-1,1.7167626E-1,-6.837726E-1,6.480008E-2,9.093908E-1,-5.8321804E-1,9.882497E-1,4.6735942E-2,2.979357E-2,1.2397959E-2,-6.0262727E-3,3.3480447E-2,-5.0733406E-2,1.6140759E-2,-3.1156227E-2,4.1105747E-3,5.573639E-2,-8.97358E-4,-3.7043016E-2,1.6971294E-2,5.6471843E-2],"categories":[],"categories_nodes":[],"categories_segments":[],"categories_sizes":[],"default_left":[0,0,0,0,0,0,0,0,0,0,0,0,0,0,0,0,0,0,0,0,0,0,0,0,0,0,0,0,0],"id":40,"left_children":[1,3,5,7,9,11,13,-1,15,17,19,21,23,25,27,-1,-1,-1,-1,-1,-1,-1,-1,-1,-1,-1,-1,-1,-1],"loss_changes":[2.1123042E2,9.567077E1,9.190472E1,7.273758E0,4.9171364E1,2.3568886E1,6.573921E1,0E0,3.516159E0,3.0133041E1,3.270334E1,2.5684776E1,7.2021065E0,6.4140274E1,1.973711E0,0E0,0E0,0E0,0E0,0E0,0E0,0E0,0E0,0E0,0E0,0E0,0E0,0E0,0E0],"parents":[2147483647,0,0,1,1,2,2,3,3,4,4,5,5,6,6,8,8,9,9,10,10,11,11,12,12,13,13,14,14],"right_children":[2,4,6,8,10,12,14,-1,16,18,20,22,24,26,28,-1,-1,-1,-1,-1,-1,-1,-1,-1,-1,-1,-1,-1,-1],"split_conditions":[1E1,7E0,6.2E1,6.637E0,4.65E1,8.788E1,4.5E1,-3.7960466E-3,4E0,3.8E1,5.55E1,4.45E1,1E0,5.385E1,7.586E1,4.6735942E-2,2.979357E-2,1.2397959E-2,-6.0262727E-3,3.3480447E-2,-5.0733406E-2,1.6140759E-2,-3.1156227E-2,4.1105747E-3,5.573639E-2,-8.97358E-4,-3.7043016E-2,1.6971294E-2,5.6471843E-2],"split_indices":[48,33,39,2,9,30,37,0,53,7,34,39,55,29,29,0,0,0,0,0,0,0,0,0,0,0,0,0,0],"split_type":[0,0,0,0,0,0,0,0,0,0,0,0,0,0,0,0,0,0,0,0,0,0,0,0,0,0,0,0,0],"sum_hessian":[2.5735415E3,1.6454923E3,9.280491E2,2.2788828E2,1.4176041E3,1.832191E2,7.4482996E2,8.381383E0,2.195069E2,1.3483533E3,6.9250824E1,1.4150714E2,4.171195E1,7.185069E2,2.6323092E1,1.6829134E2,5.1215565E1,1.0694001E3,2.7895312E2,1.3303461E1,5.594736E1,1.0348853E2,3.8018616E1,8.713013E0,3.2998936E1,1.5704579E2,5.614611E2,5.6168847E0,2.0706205E1],"tree_param":{"num_deleted":"0","num_feature":"58","num_nodes":"29","size_leaf_vector":"1"}},{"base_weights":[2.3798987E-3,8.1356764E-1,-9.6926294E-2,1.6275221E-1,8.563638E-1,6.891508E-2,-4.94937E-1,-5.9242327E-2,9.9861E-1,8.798321E-1,-2.9974345E-3,2.3890503E-1,-1.882058E-1,3.7864726E-2,-6.390946E-1,1.8286565E-2,7.183608E-2,2.3265792E-2,4.6664048E-2,8.394661E-3,3.1363685E-2,-1.2055947E-2,4.8006088E-2,2.8695239E-2,-4.081558E-2,-1.4455445E-2,-4.115763E-2],"categories":[],"categories_nodes":[],"categories_segments":[],"categories_sizes":[],"default_left":[0,0,0,0,0,0,0,0,0,0,0,0,0,0,0,0,0,0,0,0,0,0,0,0,0,0,0],"id":41,"left_children":[1,3,5,7,9,11,13,-1,15,17,-1,19,21,23,25,-1,-1,-1,-1,-1,-1,-1,-1,-1,-1,-1,-1],"loss_changes":[2.060588E2,7.5615387E0,1.5048016E2,2.3250647E1,5.7009125E0,7.043774E1,5.1534653E1,0E0,2.7002192E0,4.9980774E0,0E0,2.659034E1,3.9333298E1,6.672586E1,3.3642136E1,0E0,0E0,0E0,0E0,0E0,0E0,0E0,0E0,0E0,0E0,0E0,0E0],"parents":[2147483647,0,0,1,1,2,2,3,3,4,4,5,5,6,6,8,8,9,9,11,11,12,12,13,13,14,14],"right_children":[2,4,6,8,10,12,14,-1,16,18,-1,20,22,24,26,-1,-1,-1,-1,-1,-1,-1,-1,-1,-1,-1,-1],"split_conditions":[1.2E1,5.2E1,5E1,6E0,7.599E0,7E0,9.3478264E1,-5.9242327E-2,3.769524E2,9.019E0,-2.9974345E-3,1.29E2,4.5E1,2.8571427E-1,9.1E1,1.8286565E-2,7.183608E-2,2.3265792E-2,4.6664048E-2,8.394661E-3,3.1363685E-2,-1.2055947E-2,4.8006088E-2,2.8695239E-2,-4.081558E-2,-1.4455445E-2,-4.115763E-2],"split_indices":[33,40,27,48,1,48,41,0,47,2,0,40,37,44,39,0,0,0,0,0,0,0,0,0,0,0,0],"split_type":[0,0,0,0,0,0,0,0,0,0,0,0,0,0,0,0,0,0,0,0,0,0,0,0,0,0,0],"sum_hessian":[2.55499E3,2.7749216E2,2.2774978E3,1.7565899E1,2.5992627E2,1.6085109E3,6.68987E2,6.4847226E0,1.1081176E1,2.5349358E2,6.432692E0,9.683881E2,6.401228E2,1.426954E2,5.262916E2,5.6588326E0,5.4223437E0,3.0615707E1,2.2287787E2,8.2050934E2,1.4787874E2,6.13059E2,2.7063766E1,8.797727E1,5.4718132E1,1.8271523E2,3.435764E2],"tree_param":{"num_deleted":"0","num_feature":"58","num_nodes":"27","size_leaf_vector":"1"}},{"base_weights":[-1.0047787E-3,5.3992486E-1,-1.4126436E-1,8.2514036E-1,2.8534088E-1,8.099298E-2,-4.9703127E-1,1.9978651E-1,9.047476E-1,-4.747476E-1,4.2866367E-1,1.4087655E-1,-6.67218E-1,-6.2756735E-1,-3.2829694E-2,-9.657072E-3,3.7044615E-2,4.6939027E-2,1.1164015E-2,-6.100511E-2,3.1019235E-2,2.5840959E-2,-3.186169E-2,1.2370917E-2,-1.9197633E-2,1.8020464E-2,-4.6957303E-2,-4.2510413E-2,-1.4818464E-2,1.2117277E-2,-3.209351E-2],"categories":[],"categories_nodes":[],"categories_segments":[],"categories_sizes":[],"default_left":[0,0,0,0,0,0,0,0,0,0,0,0,0,0,0,0,0,0,0,0,0,0,0,0,0,0,0,0,0,0,0],"id":42,"left_children":[1,3,5,7,9,11,13,15,17,19,21,23,25,27,29,-1,-1,-1,-1,-1,-1,-1,-1,-1,-1,-1,-1,-1,-1,-1,-1],"loss_changes":[1.9074533E2,3.7234894E1,1.5792087E2,1.1843506E1,3.0351599E1,5.5254566E1,4.6497467E1,6.4666605E0,4.682266E0,3.7433075E1,2.2373043E1,6.3895233E1,2.6052711E1,4.380905E1,2.8743587E1,0E0,0E0,0E0,0E0,0E0,0E0,0E0,0E0,0E0,0E0,0E0,0E0,0E0,0E0,0E0,0E0],"parents":[2147483647,0,0,1,1,2,2,3,3,4,4,5,5,6,6,7,7,8,8,9,9,10,10,11,11,12,12,13,13,14,14],"right_children":[2,4,6,8,10,12,14,16,18,20,22,24,26,28,30,-1,-1,-1,-1,-1,-1,-1,-1,-1,-1,-1,-1,-1,-1,-1,-1],"split_conditions":[4.8E1,3E0,1E1,3.264E1,4.4E1,3.75E1,2.9E1,1.071E1,3.159945E-2,3.05E1,1.24E2,3.45E1,1.35E2,7.222222E-1,1.65E1,-9.657072E-3,3.7044615E-2,4.6939027E-2,1.1164015E-2,-6.100511E-2,3.1019235E-2,2.5840959E-2,-3.186169E-2,1.2370917E-2,-1.9197633E-2,1.8020464E-2,-4.6957303E-2,-4.2510413E-2,-1.4818464E-2,1.2117277E-2,-3.209351E-2],"split_indices":[39,53,48,40,40,9,36,29,52,33,53,7,39,44,40,0,0,0,0,0,0,0,0,0,0,0,0,0,0,0,0],"split_type":[0,0,0,0,0,0,0,0,0,0,0,0,0,0,0,0,0,0,0,0,0,0,0,0,0,0,0,0,0,0,0],"sum_hessian":[2.5110808E3,5.161615E2,1.9949192E3,2.4185019E2,2.743113E2,1.2285616E3,7.663576E2,2.790525E1,2.1394493E2,4.296817E1,2.3134314E2,1.1386469E3,8.991478E1,5.9774146E2,1.6861615E2,1.672492E1,1.1180331E1,2.0322916E2,1.0715782E1,2.5465204E1,1.7502966E1,2.1438503E2,1.6958107E1,9.4716296E2,1.9148386E2,1.8712267E1,7.1202515E1,3.560463E2,2.4169518E2,1.1676349E2,5.1852673E1],"tree_param":{"num_deleted":"0","num_feature":"58","num_nodes":"31","size_leaf_vector":"1"}},{"base_weights":[1.4810529E-2,2.1565662E-1,-3.5062012E-1,6.5027833E-1,8.975745E-2,2.1849866E-1,-4.965247E-1,3.618573E-1,8.01066E-1,1.2333216E-1,-7.850588E-1,1.3958285E-2,8.991552E-1,-6.82193E-1,1.824987E-1,2.3183879E-2,-2.1979721E-2,4.2037245E-2,-4.080056E-3,2.8882422E-3,2.8058464E-2,4.8389386E-2,-5.5874586E-2,1.2914053E-2,-3.089965E-2,5.2850913E-2,1.1849894E-2,-6.036929E-3,-3.971026E-2,2.1095343E-2,-6.4702734E-2],"categories":[],"categories_nodes":[],"categories_segments":[],"categories_sizes":[],"default_left":[0,0,0,0,0,0,0,0,0,0,0,0,0,0,0,0,0,0,0,0,0,0,0,0,0,0,0,0,0,0,0],"id":43,"left_children":[1,3,5,7,9,11,13,15,17,19,21,23,25,27,29,-1,-1,-1,-1,-1,-1,-1,-1,-1,-1,-1,-1,-1,-1,-1,-1],"loss_changes":[1.8409154E2,8.8476524E1,7.403534E1,1.5365311E1,3.705777E1,2.5399803E1,8.951683E1,1.0707268E1,8.415253E0,3.473331E1,2.880741E1,2.2150755E1,4.0316277E0,3.4868866E1,5.5019638E1,0E0,0E0,0E0,0E0,0E0,0E0,0E0,0E0,0E0,0E0,0E0,0E0,0E0,0E0,0E0,0E0],"parents":[2147483647,0,0,1,1,2,2,3,3,4,4,5,5,6,6,7,7,8,8,9,9,10,10,11,11,12,12,13,13,14,14],"right_children":[2,4,6,8,10,12,14,16,18,20,22,24,26,28,30,-1,-1,-1,-1,-1,-1,-1,-1,-1,-1,-1,-1,-1,-1,-1,-1],"split_conditions":[1E1,9E0,6.2E1,5.7E1,1.95E1,5.675E0,3.6E1,8E0,5.5E1,1.545E2,6.2E1,4.45E1,2E0,4.667E1,3.264E1,2.3183879E-2,-2.1979721E-2,4.2037245E-2,-4.080056E-3,2.8882422E-3,2.8058464E-2,4.8389386E-2,-5.5874586E-2,1.2914053E-2,-3.089965E-2,5.2850913E-2,1.1849894E-2,-6.036929E-3,-3.971026E-2,2.1095343E-2,-6.4702734E-2],"split_indices":[48,16,39,40,26,4,36,53,53,40,39,39,3,29,40,0,0,0,0,0,0,0,0,0,0,0,0,0,0,0,0],"split_type":[0,0,0,0,0,0,0,0,0,0,0,0,0,0,0,0,0,0,0,0,0,0,0,0,0,0,0,0,0,0,0],"sum_hessian":[2.505174E3,1.6170398E3,8.881343E2,3.6180173E2,1.255238E3,1.8107655E2,7.070577E2,1.2596336E2,2.3583835E2,1.2100846E3,4.5153496E1,1.4041267E2,4.0663883E1,5.552314E2,1.5182631E2,1.1232521E2,1.3638151E1,2.2576088E2,1.0077477E1,1.0539504E3,1.561341E2,6.741291E0,3.8412205E1,1.0190245E2,3.851022E1,3.2113346E1,8.550539E0,9.2865524E1,4.6236584E2,1.3156566E2,2.0260645E1],"tree_param":{"num_deleted":"0","num_feature":"58","num_nodes":"31","size_leaf_vector":"1"}},{"base_weights":[3.316355E-3,6.265223E-1,-1.0169434E-1,7.524067E-1,2.7188233E-1,3.125864E-2,-4.4306725E-1,4.9359596E-1,8.7558365E-1,4.4346043E-1,-7.8960305E-1,7.098602E-1,-2.2849884E-2,7.4747525E-2,-4.7256252E-1,2.8930351E-2,-2.2722723E-2,1.2828405E-2,4.5715403E-2,1.0511345E-2,3.4618124E-2,1.2472441E-3,-8.499875E-2,1.4221153E-2,5.3107858E-2,3.0185021E-3,-2.3398673E-2,-8.945092E-3,-3.4884315E-2],"categories":[],"categories_nodes":[],"categories_segments":[],"categories_sizes":[],"default_left":[0,0,0,0,0,0,0,0,0,0,0,0,0,0,0,0,0,0,0,0,0,0,0,0,0,0,0,0,0],"id":44,"left_children":[1,3,5,7,9,11,13,15,17,19,21,23,25,-1,27,-1,-1,-1,-1,-1,-1,-1,-1,-1,-1,-1,-1,-1,-1],"loss_changes":[1.616053E2,1.5590393E1,9.593808E1,7.702759E0,1.7943045E1,5.5923134E1,3.4926453E1,7.4794884E0,3.8561554E0,4.616747E0,1.0331649E1,1.640385E1,5.2325317E1,0E0,3.8468903E1,0E0,0E0,0E0,0E0,0E0,0E0,0E0,0E0,0E0,0E0,0E0,0E0,0E0,0E0],"parents":[2147483647,0,0,1,1,2,2,3,3,4,4,5,5,6,6,7,7,8,8,9,9,10,10,11,11,12,12,14,14],"right_children":[2,4,6,8,10,12,14,16,18,20,22,24,26,-1,28,-1,-1,-1,-1,-1,-1,-1,-1,-1,-1,-1,-1,-1,-1],"split_conditions":[9E0,2E0,8.929E1,4.8E1,1.05E1,1.2E1,5.281E0,3E0,2.017E3,1.755E2,4.5E0,1.05E1,2.1E1,7.4747525E-2,2.1841482E3,2.8930351E-2,-2.2722723E-2,1.2828405E-2,4.5715403E-2,1.0511345E-2,3.4618124E-2,1.2472441E-3,-8.499875E-2,1.4221153E-2,5.3107858E-2,3.0185021E-3,-2.3398673E-2,-8.945092E-3,-3.4884315E-2],"split_indices":[16,54,29,40,9,33,1,48,32,40,10,13,9,0,50,0,0,0,0,0,0,0,0,0,0,0,0,0,0],"split_type":[0,0,0,0,0,0,0,0,0,0,0,0,0,0,0,0,0,0,0,0,0,0,0,0,0,0,0,0,0],"sum_hessian":[2.4664343E3,3.5459186E2,2.1118423E3,2.604567E2,9.413517E1,1.5208762E3,5.909661E2,8.6409645E1,1.7404706E2,8.1788284E1,1.2346888E1,1.1096986E2,1.4099064E3,7.742021E0,5.832241E2,7.983538E1,6.5742598E0,1.092042E1,1.6312663E2,4.365155E1,3.8136734E1,7.2863674E0,5.06052E0,5.1495003E1,5.9474854E1,1.1889229E3,2.2098346E2,2.5425517E2,3.2896893E2],"tree_param":{"num_deleted":"0","num_feature":"58","num_nodes":"29","size_leaf_vector":"1"}},{"base_weights":[-1.854717E-3,7.331038E-1,-8.645529E-2,1.7764848E-1,7.9737455E-1,9.1484696E-2,-3.816825E-1,-1.3596272E-1,4.17087E-2,8.3231455E-1,-1.562479E-2,1.2912E-1,-7.1405333E-1,-5.318369E-1,1.3535751E-1,2.742803E-2,-4.7249626E-2,1.1063655E-2,4.40368E-2,1.0899871E-2,-1.1403176E-2,3.8308796E-2,-5.499683E-2,-2.1821016E-3,-3.9415907E-2,2.282284E-2,-3.141531E-2],"categories":[],"categories_nodes":[],"categories_segments":[],"categories_sizes":[],"default_left":[0,0,0,0,0,0,0,0,0,0,0,0,0,0,0,0,0,0,0,0,0,0,0,0,0,0,0],"id":45,"left_children":[1,3,5,7,9,11,13,15,-1,17,-1,19,21,23,25,-1,-1,-1,-1,-1,-1,-1,-1,-1,-1,-1,-1],"loss_changes":[1.5176053E2,8.782059E0,1.15034225E2,5.947385E0,9.130585E0,4.157711E1,6.4033424E1,1.2007846E1,0E0,6.185013E0,0E0,4.1569984E1,3.6244232E1,7.988374E1,4.616341E1,0E0,0E0,0E0,0E0,0E0,0E0,0E0,0E0,0E0,0E0,0E0,0E0],"parents":[2147483647,0,0,1,1,2,2,3,3,4,4,5,5,6,6,7,7,9,9,11,11,12,12,13,13,14,14],"right_children":[2,4,6,8,10,12,14,16,-1,18,-1,20,22,24,26,-1,-1,-1,-1,-1,-1,-1,-1,-1,-1,-1,-1],"split_conditions":[1.2E1,8.445E0,1E1,6E0,1.0505E1,4.8E1,2.9E1,3E0,4.17087E-2,5.2E1,-1.562479E-2,3.7E1,5.55E1,8.7E1,1.5E1,2.742803E-2,-4.7249626E-2,1.1063655E-2,4.40368E-2,1.0899871E-2,-1.1403176E-2,3.8308796E-2,-5.499683E-2,-2.1821016E-3,-3.9415907E-2,2.282284E-2,-3.141531E-2],"split_indices":[33,2,48,3,2,9,36,54,0,40,0,7,34,39,40,0,0,0,0,0,0,0,0,0,0,0,0],"split_type":[0,0,0,0,0,0,0,0,0,0,0,0,0,0,0,0,0,0,0,0,0,0,0,0,0,0,0],"sum_hessian":[2.4377175E3,2.5045119E2,2.1872664E3,2.655942E1,2.2389177E2,1.3653655E3,8.219009E2,1.877857E1,7.78085E0,2.1742218E2,6.469585E0,1.3056252E3,5.974017E1,6.3689594E2,1.8500491E2,1.0433595E1,8.344976E0,1.6577757E1,2.0084442E2,1.0459481E3,2.5967712E2,1.2047662E1,4.769251E1,2.1996408E2,4.1693185E2,1.3066666E2,5.433826E1],"tree_param":{"num_deleted":"0","num_feature":"58","num_nodes":"27","size_leaf_vector":"1"}},{"base_weights":[-1.173565E-2,1.764134E-1,-3.571712E-1,7.754457E-1,9.7443745E-2,2.2990352E-1,-4.5983604E-1,8.616668E-1,4.746545E-1,1.4056191E-1,-5.5341125E-1,3.2536513E-1,-5.7896532E-2,-5.0979024E-1,9.322951E-1,9.835054E-3,4.429166E-2,-1.2846778E-2,3.4306068E-2,8.314504E-3,-2.9607356E-2,2.2512795E-2,-4.4975773E-2,3.5055462E-2,8.023037E-5,-3.0157704E-2,8.7114377E-4,1.2275979E-2,5.7780724E-2],"categories":[],"categories_nodes":[],"categories_segments":[],"categories_sizes":[],"default_left":[0,0,0,0,0,0,0,0,0,0,0,0,0,0,0,0,0,0,0,0,0,0,0,0,0,0,0,0,0],"id":46,"left_children":[1,3,5,7,9,11,13,15,17,19,21,23,-1,25,27,-1,-1,-1,-1,-1,-1,-1,-1,-1,-1,-1,-1,-1,-1],"loss_changes":[1.5585634E2,7.33291E1,5.1122215E1,4.0706024E0,3.865948E1,1.7371937E1,5.0797913E1,1.9648819E0,7.006215E0,2.445205E1,3.035543E1,1.4580021E1,0E0,3.428578E1,3.4820251E0,0E0,0E0,0E0,0E0,0E0,0E0,0E0,0E0,0E0,0E0,0E0,0E0,0E0,0E0],